<?xml version="1.0"?>
<opencv_storage>
<cascade>
  <stageType>BOOST</stageType>
  <featureType>HAAR</featureType>
  <height>80</height>
  <width>120</width>
  <stageParams>
    <boostType>GAB</boostType>
    <minHitRate>9.9500000476837158e-01</minHitRate>
    <maxFalseAlarm>5.0000000000000000e-01</maxFalseAlarm>
    <weightTrimRate>9.4999998807907104e-01</weightTrimRate>
    <maxDepth>1</maxDepth>
    <maxWeakCount>100</maxWeakCount></stageParams>
  <featureParams>
    <maxCatCount>0</maxCatCount>
    <featSize>1</featSize>
    <mode>BASIC</mode></featureParams>
  <stageNum>6</stageNum>
  <stages>
    <!-- stage 0 -->
    <_>
      <maxWeakCount>3</maxWeakCount>
      <stageThreshold>-1.7932374477386475e+00</stageThreshold>
      <weakClassifiers>
        <_>
          <internalNodes>
            0 -1 29 2.1887916955165565e-04</internalNodes>
          <leafValues>
            -9.4586467742919922e-01 -1.2380952388048172e-01</leafValues></_>
        <_>
          <internalNodes>
            0 -1 19 -1.2181287456769496e-04</internalNodes>
          <leafValues>
            4.3694695830345154e-01 -7.8796488046646118e-01</leafValues></_>
        <_>
          <internalNodes>
            0 -1 15 1.5965453349053860e-03</internalNodes>
          <leafValues>
            -8.8146299123764038e-01 3.2476440072059631e-01</leafValues></_></weakClassifiers></_>
    <!-- stage 1 -->
    <_>
      <maxWeakCount>5</maxWeakCount>
      <stageThreshold>-1.6419430971145630e+00</stageThreshold>
      <weakClassifiers>
        <_>
          <internalNodes>
            0 -1 26 -2.0806217798963189e-04</internalNodes>
          <leafValues>
            1.3207547366619110e-01 -9.3160724639892578e-01</leafValues></_>
        <_>
          <internalNodes>
            0 -1 28 -5.1640218589454889e-04</internalNodes>
          <leafValues>
            4.7500550746917725e-01 -7.8007906675338745e-01</leafValues></_>
        <_>
          <internalNodes>
            0 -1 11 -1.2645373120903969e-02</internalNodes>
          <leafValues>
            6.8880444765090942e-01 -5.9512001276016235e-01</leafValues></_>
        <_>
          <internalNodes>
            0 -1 16 2.4341577664017677e-03</internalNodes>
          <leafValues>
            3.0006709694862366e-01 -9.5944476127624512e-01</leafValues></_>
        <_>
          <internalNodes>
            0 -1 13 -1.0239022783935070e-02</internalNodes>
          <leafValues>
            3.8713046908378601e-01 -6.9888657331466675e-01</leafValues></_></weakClassifiers></_>
    <!-- stage 2 -->
    <_>
      <maxWeakCount>5</maxWeakCount>
      <stageThreshold>-2.3600246906280518e+00</stageThreshold>
      <weakClassifiers>
        <_>
          <internalNodes>
            0 -1 7 7.7701997943222523e-03</internalNodes>
          <leafValues>
            -9.1746640205383301e-01 7.5000000000000000e-01</leafValues></_>
        <_>
          <internalNodes>
            0 -1 5 -1.5015162352938205e-04</internalNodes>
          <leafValues>
            4.2940706014633179e-01 -7.1193045377731323e-01</leafValues></_>
        <_>
          <internalNodes>
            0 -1 12 -7.2596332756802440e-05</internalNodes>
          <leafValues>
            6.0564488172531128e-01 -4.9776411056518555e-01</leafValues></_>
        <_>
          <internalNodes>
            0 -1 25 5.3329998627305031e-04</internalNodes>
          <leafValues>
            -7.4581015110015869e-01 3.7822285294532776e-01</leafValues></_>
        <_>
          <internalNodes>
            0 -1 18 4.8497423995286226e-04</internalNodes>
          <leafValues>
            -6.1108648777008057e-01 4.5089811086654663e-01</leafValues></_></weakClassifiers></_>
    <!-- stage 3 -->
    <_>
      <maxWeakCount>6</maxWeakCount>
      <stageThreshold>-1.9708119630813599e+00</stageThreshold>
      <weakClassifiers>
        <_>
          <internalNodes>
            0 -1 24 -1.0299368761479855e-02</internalNodes>
          <leafValues>
            4.0000000596046448e-01 -9.3009710311889648e-01</leafValues></_>
        <_>
          <internalNodes>
            0 -1 0 3.2049577683210373e-02</internalNodes>
          <leafValues>
            -7.5134921073913574e-01 5.0228440761566162e-01</leafValues></_>
        <_>
          <internalNodes>
            0 -1 8 -2.6935497298836708e-03</internalNodes>
          <leafValues>
            6.8677079677581787e-01 -4.8741602897644043e-01</leafValues></_>
        <_>
          <internalNodes>
            0 -1 14 -1.1724533978849649e-03</internalNodes>
          <leafValues>
            -9.6495568752288818e-01 2.7146345376968384e-01</leafValues></_>
        <_>
          <internalNodes>
            0 -1 6 6.3204625621438026e-03</internalNodes>
          <leafValues>
            -3.4479165077209473e-01 8.5359519720077515e-01</leafValues></_>
        <_>
          <internalNodes>
            0 -1 20 -2.5586550691514276e-05</internalNodes>
          <leafValues>
            -9.0280830860137939e-01 3.1553879380226135e-01</leafValues></_></weakClassifiers></_>
    <!-- stage 4 -->
    <_>
      <maxWeakCount>5</maxWeakCount>
      <stageThreshold>-1.7581073045730591e+00</stageThreshold>
      <weakClassifiers>
        <_>
          <internalNodes>
            0 -1 4 2.6228962466120720e-02</internalNodes>
          <leafValues>
            -9.2259311676025391e-01 2.1212121844291687e-01</leafValues></_>
        <_>
          <internalNodes>
            0 -1 1 7.3114419355988503e-03</internalNodes>
          <leafValues>
            -7.2896873950958252e-01 4.8099136352539062e-01</leafValues></_>
        <_>
          <internalNodes>
            0 -1 10 4.5065401354804635e-04</internalNodes>
          <leafValues>
            1.8394689261913300e-01 -8.4010201692581177e-01</leafValues></_>
        <_>
          <internalNodes>
            0 -1 23 -3.1778628472238779e-03</internalNodes>
          <leafValues>
            -9.6002459526062012e-01 1.5850508213043213e-01</leafValues></_>
        <_>
          <internalNodes>
            0 -1 2 -3.7943669594824314e-03</internalNodes>
          <leafValues>
            5.7505148649215698e-01 -3.7651896476745605e-01</leafValues></_></weakClassifiers></_>
    <!-- stage 5 -->
    <_>
      <maxWeakCount>6</maxWeakCount>
      <stageThreshold>-2.4539484977722168e+00</stageThreshold>
      <weakClassifiers>
        <_>
          <internalNodes>
            0 -1 9 -1.3681973330676556e-02</internalNodes>
          <leafValues>
            -4.1463413834571838e-01 -9.3525540828704834e-01</leafValues></_>
        <_>
          <internalNodes>
            0 -1 3 1.0204627178609371e-02</internalNodes>
          <leafValues>
            -7.1741890907287598e-01 2.1596035361289978e-01</leafValues></_>
        <_>
          <internalNodes>
            0 -1 22 -2.7870296617038548e-04</internalNodes>
          <leafValues>
            1.8453560769557953e-01 -7.5666254758834839e-01</leafValues></_>
        <_>
          <internalNodes>
            0 -1 17 1.1784627567976713e-03</internalNodes>
          <leafValues>
            1.6869889199733734e-01 -9.4771391153335571e-01</leafValues></_>
        <_>
          <internalNodes>
            0 -1 27 -4.8894430510699749e-03</internalNodes>
          <leafValues>
            3.9577063918113708e-01 -5.0988817214965820e-01</leafValues></_>
        <_>
          <internalNodes>
            0 -1 21 1.8164941138820723e-05</internalNodes>
          <leafValues>
            2.9657766222953796e-01 -7.5810956954956055e-01</leafValues></_></weakClassifiers></_></stages>
  <features>
    <_>
      <rects>
        <_>
          1 26 28 30 -1.</_>
        <_>
          15 26 14 30 2.</_></rects>
      <tilted>0</tilted></_>
    <_>
      <rects>
        <_>
          5 33 21 8 -1.</_>
        <_>
          12 33 7 8 3.</_></rects>
      <tilted>0</tilted></_>
    <_>
      <rects>
        <_>
          6 25 18 14 -1.</_>
        <_>
          12 25 6 14 3.</_></rects>
      <tilted>0</tilted></_>
    <_>
      <rects>
        <_>
          10 37 24 11 -1.</_>
        <_>
          18 37 8 11 3.</_></rects>
      <tilted>0</tilted></_>
    <_>
      <rects>
        <_>
          13 38 24 15 -1.</_>
        <_>
          21 38 8 15 3.</_></rects>
      <tilted>0</tilted></_>
    <_>
      <rects>
        <_>
          16 24 3 3 -1.</_>
        <_>
          16 25 3 1 3.</_></rects>
      <tilted>0</tilted></_>
    <_>
      <rects>
        <_>
          18 23 8 28 -1.</_>
        <_>
          22 23 4 28 2.</_></rects>
      <tilted>0</tilted></_>
    <_>
      <rects>
        <_>
          28 16 84 3 -1.</_>
        <_>
          28 17 84 1 3.</_></rects>
      <tilted>0</tilted></_>
    <_>
      <rects>
        <_>
          32 55 12 9 -1.</_>
        <_>
          32 58 12 3 3.</_></rects>
      <tilted>0</tilted></_>
    <_>
      <rects>
        <_>
          38 48 14 18 -1.</_>
        <_>
          38 54 14 6 3.</_></rects>
      <tilted>0</tilted></_>
    <_>
      <rects>
        <_>
          40 42 74 1 -1.</_>
        <_>
          77 42 37 1 2.</_></rects>
      <tilted>0</tilted></_>
    <_>
      <rects>
        <_>
          41 48 23 16 -1.</_>
        <_>
          41 56 23 8 2.</_></rects>
      <tilted>0</tilted></_>
    <_>
      <rects>
        <_>
          44 76 3 3 -1.</_>
        <_>
          44 77 3 1 3.</_></rects>
      <tilted>0</tilted></_>
    <_>
      <rects>
        <_>
          45 19 20 46 -1.</_>
        <_>
          45 42 20 23 2.</_></rects>
      <tilted>0</tilted></_>
    <_>
      <rects>
        <_>
          45 23 14 31 -1.</_>
        <_>
          52 23 7 31 2.</_></rects>
      <tilted>0</tilted></_>
    <_>
      <rects>
        <_>
          45 37 30 10 -1.</_>
        <_>
          55 37 10 10 3.</_></rects>
      <tilted>0</tilted></_>
    <_>
      <rects>
        <_>
          47 20 12 31 -1.</_>
        <_>
          53 20 6 31 2.</_></rects>
      <tilted>0</tilted></_>
    <_>
      <rects>
        <_>
          47 41 18 12 -1.</_>
        <_>
          53 41 6 12 3.</_></rects>
      <tilted>0</tilted></_>
    <_>
      <rects>
        <_>
          50 33 14 8 -1.</_>
        <_>
          50 37 14 4 2.</_></rects>
      <tilted>0</tilted></_>
    <_>
      <rects>
        <_>
          52 15 3 3 -1.</_>
        <_>
          52 16 3 1 3.</_></rects>
      <tilted>0</tilted></_>
    <_>
      <rects>
        <_>
          56 38 6 2 -1.</_>
        <_>
          59 38 3 2 2.</_></rects>
      <tilted>0</tilted></_>
    <_>
      <rects>
        <_>
          56 39 6 1 -1.</_>
        <_>
          59 39 3 1 2.</_></rects>
      <tilted>0</tilted></_>
    <_>
      <rects>
        <_>
          59 22 30 23 -1.</_>
        <_>
          69 22 10 23 3.</_></rects>
      <tilted>0</tilted></_>
    <_>
      <rects>
        <_>
          60 27 30 12 -1.</_>
        <_>
          70 27 10 12 3.</_></rects>
      <tilted>0</tilted></_>
    <_>
      <rects>
        <_>
          67 50 24 8 -1.</_>
        <_>
          67 54 24 4 2.</_></rects>
      <tilted>0</tilted></_>
    <_>
      <rects>
        <_>
          72 39 22 14 -1.</_>
        <_>
          83 39 11 14 2.</_></rects>
      <tilted>0</tilted></_>
    <_>
      <rects>
        <_>
          77 9 2 3 -1.</_>
        <_>
          77 10 2 1 3.</_></rects>
      <tilted>0</tilted></_>
    <_>
      <rects>
        <_>
          95 15 18 40 -1.</_>
        <_>
          104 15 9 40 2.</_></rects>
      <tilted>0</tilted></_>
    <_>
      <rects>
        <_>
          112 29 3 21 -1.</_>
        <_>
          113 29 1 21 3.</_></rects>
      <tilted>0</tilted></_>
    <_>
      <rects>
        <_>
          113 26 3 6 -1.</_>
        <_>
          114 26 1 6 3.</_></rects>
      <tilted>0</tilted></_></features></cascade>
</opencv_storage>
