<?xml version="1.0"?>
<opencv_storage>
<cascade>
  <stageType>BOOST</stageType>
  <featureType>LBP</featureType>
  <height>80</height>
  <width>120</width>
  <stageParams>
    <boostType>GAB</boostType>
    <minHitRate>9.9900001287460327e-01</minHitRate>
    <maxFalseAlarm>5.0000000000000000e-01</maxFalseAlarm>
    <weightTrimRate>9.4999999999999996e-01</weightTrimRate>
    <maxDepth>1</maxDepth>
    <maxWeakCount>100</maxWeakCount></stageParams>
  <featureParams>
    <maxCatCount>256</maxCatCount>
    <featSize>1</featSize></featureParams>
  <stageNum>20</stageNum>
  <stages>
    <!-- stage 0 -->
    <_>
      <maxWeakCount>3</maxWeakCount>
      <stageThreshold>-1.0856051445007324e+00</stageThreshold>
      <weakClassifiers>
        <_>
          <internalNodes>
            0 -1 7 -111675397 -11284005 1359051191 -44699425 -129447681
            -342130517 1460526063 1602224127</internalNodes>
          <leafValues>
            -8.6632651090621948e-01 3.6666667461395264e-01</leafValues></_>
        <_>
          <internalNodes>
            0 -1 5 -116656222 -36319230 -778745856 -35667689 -1857365557
            -107255349 1806391663 -32901</internalNodes>
          <leafValues>
            -7.9478371143341064e-01 4.2636126279830933e-01</leafValues></_>
        <_>
          <internalNodes>
            0 -1 39 -58698503 2110460138 -1727823403 1968525651
            -225783048 -41285472 -1298074897 -1685349965</internalNodes>
          <leafValues>
            -6.4563983678817749e-01 6.4612406492233276e-01</leafValues></_></weakClassifiers></_>
    <!-- stage 1 -->
    <_>
      <maxWeakCount>6</maxWeakCount>
      <stageThreshold>-1.8326921463012695e+00</stageThreshold>
      <weakClassifiers>
        <_>
          <internalNodes>
            0 -1 18 -100674307 -6826505 -620111907 -45098541 940851420
            -81340165 -553460225 -9437473</internalNodes>
          <leafValues>
            -8.1028455495834351e-01 2.4748490750789642e-01</leafValues></_>
        <_>
          <internalNodes>
            0 -1 52 464214233 -1895346046 2059818483 1564430825
            -1080362278 -342900597 -635290689 -1355023105</internalNodes>
          <leafValues>
            -6.7631959915161133e-01 4.8530679941177368e-01</leafValues></_>
        <_>
          <internalNodes>
            0 -1 15 -1836843030 -549219903 -2121049790 -3287913
            -1341466161 -1629763401 525061059 -2627245</internalNodes>
          <leafValues>
            -6.9467067718505859e-01 5.0345879793167114e-01</leafValues></_>
        <_>
          <internalNodes>
            0 -1 58 1034443001 529486496 1209094963 521361817 2065357534
            -27547985 864184539 -1691722916</internalNodes>
          <leafValues>
            -7.1148473024368286e-01 4.9662894010543823e-01</leafValues></_>
        <_>
          <internalNodes>
            0 -1 64 -1086825220 -673512254 -1258225639 2143375753
            -1937075617 -341082054 -930206529 -275359667</internalNodes>
          <leafValues>
            -6.4136111736297607e-01 5.6803113222122192e-01</leafValues></_>
        <_>
          <internalNodes>
            0 -1 71 -206325754 -3944438 16795016 -183517120 310591528
            -83148743 25213905 -159128597</internalNodes>
          <leafValues>
            -6.5891820192337036e-01 5.3980213403701782e-01</leafValues></_></weakClassifiers></_>
    <!-- stage 2 -->
    <_>
      <maxWeakCount>5</maxWeakCount>
      <stageThreshold>-1.1928505897521973e+00</stageThreshold>
      <weakClassifiers>
        <_>
          <internalNodes>
            0 -1 16 -551559945 -551877565 -754740359 -642297143
            823672968 -897318719 721436415 -8729713</internalNodes>
          <leafValues>
            -8.2508742809295654e-01 3.0260521173477173e-01</leafValues></_>
        <_>
          <internalNodes>
            0 -1 60 -1715905415 2105774872 -851361761 -10416099
            -72712038 -608046167 1572882683 -1419054819</internalNodes>
          <leafValues>
            -6.6383826732635498e-01 4.6509832143783569e-01</leafValues></_>
        <_>
          <internalNodes>
            0 -1 3 -1726381874 -107462647 -718351549 2130860293
            -669512564 -645848933 -1174386645 -81863781</internalNodes>
          <leafValues>
            -6.3704323768615723e-01 5.2057880163192749e-01</leafValues></_>
        <_>
          <internalNodes>
            0 -1 49 -610709288 -1975451456 805319127 151212041
            -1694453622 -930926543 -829920513 -1690679139</internalNodes>
          <leafValues>
            -6.9526439905166626e-01 5.2131724357604980e-01</leafValues></_>
        <_>
          <internalNodes>
            0 -1 68 -952372166 444682624 289617089 869863831 -395931443
            -1148268413 -1943274546 185328783</internalNodes>
          <leafValues>
            -6.5693181753158569e-01 5.5258631706237793e-01</leafValues></_></weakClassifiers></_>
    <!-- stage 3 -->
    <_>
      <maxWeakCount>5</maxWeakCount>
      <stageThreshold>-1.0028136968612671e+00</stageThreshold>
      <weakClassifiers>
        <_>
          <internalNodes>
            0 -1 19 -778070817 386420737 17121281 -937356992 -2012707688
            -652033464 -1565736549 -632566198</internalNodes>
          <leafValues>
            -7.8717601299285889e-01 7.6744186878204346e-01</leafValues></_>
        <_>
          <internalNodes>
            0 -1 21 1233506801 -989134832 1081619 1296629777 -1065319800
            -1400207096 1124221387 -482124397</internalNodes>
          <leafValues>
            -6.8329018354415894e-01 6.3326233625411987e-01</leafValues></_>
        <_>
          <internalNodes>
            0 -1 53 -2123151912 1200865411 201361107 1364267024
            -1736439794 -1694400512 1260391379 -1021808630</internalNodes>
          <leafValues>
            -6.9945073127746582e-01 6.2474453449249268e-01</leafValues></_>
        <_>
          <internalNodes>
            0 -1 2 -892350322 -1064042472 1107394648 1477972224
            100698398 1931084690 16843470 -73666357</internalNodes>
          <leafValues>
            -7.4290555715560913e-01 5.8296281099319458e-01</leafValues></_>
        <_>
          <internalNodes>
            0 -1 30 -611004052 1392574722 2343031 -249327549 136464408
            -1161655808 139074158 -1979563409</internalNodes>
          <leafValues>
            -7.3073893785476685e-01 6.0475438833236694e-01</leafValues></_></weakClassifiers></_>
    <!-- stage 4 -->
    <_>
      <maxWeakCount>4</maxWeakCount>
      <stageThreshold>-1.7012450695037842e+00</stageThreshold>
      <weakClassifiers>
        <_>
          <internalNodes>
            0 -1 55 -1828564773 -2126314942 1073774609 100728833
            -2113761270 32896 148167 -620212147</internalNodes>
          <leafValues>
            -8.8332521915435791e-01 7.1557563543319702e-01</leafValues></_>
        <_>
          <internalNodes>
            0 -1 43 -1224191874 1090650368 67174417 68223257 -938794936
            -905445376 36945 1588152458</internalNodes>
          <leafValues>
            -8.5417014360427856e-01 6.6549974679946899e-01</leafValues></_>
        <_>
          <internalNodes>
            0 -1 40 -250982287 1971453954 -2147481599 33624065
            -1878884254 -1635547118 -1878898541 -1073118711</internalNodes>
          <leafValues>
            -6.8256223201751709e-01 8.3658242225646973e-01</leafValues></_>
        <_>
          <internalNodes>
            0 -1 37 -1744830403 1761636353 114769 223953041 -2146926568
            -1734199288 33019 1660982317</internalNodes>
          <leafValues>
            -7.4757051467895508e-01 7.1881246566772461e-01</leafValues></_></weakClassifiers></_>
    <!-- stage 5 -->
    <_>
      <maxWeakCount>4</maxWeakCount>
      <stageThreshold>-1.7016259431838989e+00</stageThreshold>
      <weakClassifiers>
        <_>
          <internalNodes>
            0 -1 59 -1324985125 -484440878 1476415635 -653093875
            -938898746 -1711259640 -402621021 -636755813</internalNodes>
          <leafValues>
            -8.3221477270126343e-01 5.7004833221435547e-01</leafValues></_>
        <_>
          <internalNodes>
            0 -1 13 1309237677 1436795174 -217956345 -1688870863
            1879863560 -1975301871 1266698975 -1367162421</internalNodes>
          <leafValues>
            -7.5130206346511841e-01 5.6497341394424438e-01</leafValues></_>
        <_>
          <internalNodes>
            0 -1 31 1342796241 1103433984 69843 344003585 -2063482672
            -754237438 -1073711925 -1818771206</internalNodes>
          <leafValues>
            -6.1684221029281616e-01 7.1910154819488525e-01</leafValues></_>
        <_>
          <internalNodes>
            0 -1 9 -562323898 1900079616 1074790580 806391835
            -1459457779 1610891402 268966220 -241186773</internalNodes>
          <leafValues>
            -8.1754237413406372e-01 5.3256970643997192e-01</leafValues></_></weakClassifiers></_>
    <!-- stage 6 -->
    <_>
      <maxWeakCount>4</maxWeakCount>
      <stageThreshold>-1.4550632238388062e+00</stageThreshold>
      <weakClassifiers>
        <_>
          <internalNodes>
            0 -1 28 -1811818159 1526792728 -2147188717 1132478465
            -2130343534 33570944 141 -567815913</internalNodes>
          <leafValues>
            -8.4896808862686157e-01 8.4239131212234497e-01</leafValues></_>
        <_>
          <internalNodes>
            0 -1 48 1060820187 1844290552 -1109458975 -1008341275
            -1342245502 -11534345 -537362571 -1398639995</internalNodes>
          <leafValues>
            -6.9488179683685303e-01 7.8940421342849731e-01</leafValues></_>
        <_>
          <internalNodes>
            0 -1 57 -1743319015 1833107458 268500993 403836944
            -805306278 -1308556286 -2147467080 -1958036977</internalNodes>
          <leafValues>
            -7.1886914968490601e-01 7.4521338939666748e-01</leafValues></_>
        <_>
          <internalNodes>
            0 -1 66 -33860348 -1178724385 2130640272 2113789823
            2142175195 1140785151 1723759676 -373653669</internalNodes>
          <leafValues>
            -6.3179439306259155e-01 8.0765581130981445e-01</leafValues></_></weakClassifiers></_>
    <!-- stage 7 -->
    <_>
      <maxWeakCount>3</maxWeakCount>
      <stageThreshold>-1.0098214149475098e+00</stageThreshold>
      <weakClassifiers>
        <_>
          <internalNodes>
            0 -1 24 268452657 -2147418048 -2013231103 1359053073
            -1073741694 -2142994416 1157726607 -130873327</internalNodes>
          <leafValues>
            -9.2762833833694458e-01 8.7252748012542725e-01</leafValues></_>
        <_>
          <internalNodes>
            0 -1 8 -2146119423 1073744130 151093248 -1610539008 8
            -1065318912 -2147219455 -863813115</internalNodes>
          <leafValues>
            -9.1929978132247925e-01 8.2906901836395264e-01</leafValues></_>
        <_>
          <internalNodes>
            0 -1 42 -2130558736 -2147352576 32805 268435713 -2147352438
            1091141780 8421572 -1739929450</internalNodes>
          <leafValues>
            -8.6473393440246582e-01 8.3710676431655884e-01</leafValues></_></weakClassifiers></_>
    <!-- stage 8 -->
    <_>
      <maxWeakCount>4</maxWeakCount>
      <stageThreshold>-1.7080209255218506e+00</stageThreshold>
      <weakClassifiers>
        <_>
          <internalNodes>
            0 -1 38 1854884081 -8514791 -1627390285 1963130881
            -813953334 -1485899905 544636799 -1081944621</internalNodes>
          <leafValues>
            -8.2160919904708862e-01 8.8307690620422363e-01</leafValues></_>
        <_>
          <internalNodes>
            0 -1 50 -1534979938 -1056681918 35880977 -734967679 32782
            -1962409911 -536346105 -1391853303</internalNodes>
          <leafValues>
            -7.8592818975448608e-01 5.2175498008728027e-01</leafValues></_>
        <_>
          <internalNodes>
            0 -1 12 -1539599087 -1071775280 1073819648 1141153865
            -1324793779 -2147483134 37916931 -124795773</internalNodes>
          <leafValues>
            -7.5841248035430908e-01 6.5925270318984985e-01</leafValues></_>
        <_>
          <internalNodes>
            0 -1 20 -1862184813 1465028928 79696143 -1610022877
            -2147450752 -2013265888 134316186 -1186347007</internalNodes>
          <leafValues>
            -6.4975416660308838e-01 8.0490678548812866e-01</leafValues></_></weakClassifiers></_>
    <!-- stage 9 -->
    <_>
      <maxWeakCount>4</maxWeakCount>
      <stageThreshold>-1.5557183027267456e+00</stageThreshold>
      <weakClassifiers>
        <_>
          <internalNodes>
            0 -1 41 1493172304 402653186 273 -1056898795 -2097114552
            809533568 -1038057271 2072952970</internalNodes>
          <leafValues>
            -8.8686484098434448e-01 8.4541064500808716e-01</leafValues></_>
        <_>
          <internalNodes>
            0 -1 62 -14965533 1529576066 2130684927 1656450234
            -1623728129 498593783 -1745494385 1134802227</internalNodes>
          <leafValues>
            -7.5447356700897217e-01 9.1304165124893188e-01</leafValues></_>
        <_>
          <internalNodes>
            0 -1 11 -2129440655 88211602 -1879048175 -1740046334
            -1996455800 -1660944256 49292 -1207760381</internalNodes>
          <leafValues>
            -7.3190164566040039e-01 8.0948597192764282e-01</leafValues></_>
        <_>
          <internalNodes>
            0 -1 51 -1878976303 -1928265727 65747 268701776 -1205690358
            -1409154920 9 738361987</internalNodes>
          <leafValues>
            -7.1542781591415405e-01 8.1752181053161621e-01</leafValues></_></weakClassifiers></_>
    <!-- stage 10 -->
    <_>
      <maxWeakCount>4</maxWeakCount>
      <stageThreshold>-1.5849916934967041e+00</stageThreshold>
      <weakClassifiers>
        <_>
          <internalNodes>
            0 -1 10 2072037103 285822981 385537 -498909183 -939210752
            -1853879807 1091503259 -116858675</internalNodes>
          <leafValues>
            -8.3928573131561279e-01 7.6881718635559082e-01</leafValues></_>
        <_>
          <internalNodes>
            0 -1 26 -1550068295 1636106496 16793952 2031190145
            -1467834365 -1878917119 -1853702058 -1685337912</internalNodes>
          <leafValues>
            -7.5612485408782959e-01 6.9301635026931763e-01</leafValues></_>
        <_>
          <internalNodes>
            0 -1 54 -819312422 -1880129682 1945088915 2109603837
            1609191118 -597753858 2013101943 -537470985</internalNodes>
          <leafValues>
            -6.9143897294998169e-01 7.9218888282775879e-01</leafValues></_>
        <_>
          <internalNodes>
            0 -1 6 -2147269886 -2129326077 1073746195 -1290731456
            8912921 688914441 17369772 1109098812</internalNodes>
          <leafValues>
            -7.2553610801696777e-01 7.0185786485671997e-01</leafValues></_></weakClassifiers></_>
    <!-- stage 11 -->
    <_>
      <maxWeakCount>4</maxWeakCount>
      <stageThreshold>-1.6448307037353516e+00</stageThreshold>
      <weakClassifiers>
        <_>
          <internalNodes>
            0 -1 73 -2129440694 1493172496 1073758278 184614913 164481
            2130048 2687754 -2112757749</internalNodes>
          <leafValues>
            -9.0715664625167847e-01 8.7037038803100586e-01</leafValues></_>
        <_>
          <internalNodes>
            0 -1 75 -1589403478 386007040 1360134160 1702953153 41600
            1073741826 1073874944 -1572157365</internalNodes>
          <leafValues>
            -8.1789940595626831e-01 8.1627959012985229e-01</leafValues></_>
        <_>
          <internalNodes>
            0 -1 1 -83900202 -5091653 -1090718728 -1158656108 2071986120
            -16793604 -9570433 -151652523</internalNodes>
          <leafValues>
            -7.3598474264144897e-01 8.7140995264053345e-01</leafValues></_>
        <_>
          <internalNodes>
            0 -1 63 -805105454 -184549240 268501569 -738131968
            -2113764982 -889159550 1207992322 659642</internalNodes>
          <leafValues>
            -7.9118460416793823e-01 8.1923758983612061e-01</leafValues></_></weakClassifiers></_>
    <!-- stage 12 -->
    <_>
      <maxWeakCount>4</maxWeakCount>
      <stageThreshold>-1.6291040182113647e+00</stageThreshold>
      <weakClassifiers>
        <_>
          <internalNodes>
            0 -1 14 -1048225677 -662601728 4097 -1592934321 -2013233014
            -1702363135 1090914527 -641213735</internalNodes>
          <leafValues>
            -8.1926608085632324e-01 8.9375001192092896e-01</leafValues></_>
        <_>
          <internalNodes>
            0 -1 74 1906683910 1460244513 -1996488699 1996554528
            -2122284152 1073938441 33587503 -225844085</internalNodes>
          <leafValues>
            -6.8940353393554688e-01 7.6196092367172241e-01</leafValues></_>
        <_>
          <internalNodes>
            0 -1 17 -2130487102 -83853295 1076150291 1342488735
            -1054858565 1249902609 2101259 1560297643</internalNodes>
          <leafValues>
            -8.5311406850814819e-01 6.1177557706832886e-01</leafValues></_>
        <_>
          <internalNodes>
            0 -1 47 -1611902852 787472364 -150996269 153903069 -25167650
            -1401161882 1719041143 -667091490</internalNodes>
          <leafValues>
            -7.1868479251861572e-01 7.5376337766647339e-01</leafValues></_></weakClassifiers></_>
    <!-- stage 13 -->
    <_>
      <maxWeakCount>3</maxWeakCount>
      <stageThreshold>-8.2381165027618408e-01</stageThreshold>
      <weakClassifiers>
        <_>
          <internalNodes>
            0 -1 45 1596527797 -1064632240 286330881 1312882816
            670514388 -1611668448 1089894079 -1742028670</internalNodes>
          <leafValues>
            -8.7895983457565308e-01 9.3246752023696899e-01</leafValues></_>
        <_>
          <internalNodes>
            0 -1 29 -620756783 1145114632 83920149 1094975488
            -2010904444 134217728 262272 -1207711720</internalNodes>
          <leafValues>
            -7.5983631610870361e-01 9.0576338768005371e-01</leafValues></_>
        <_>
          <internalNodes>
            0 -1 46 -3646225 -1612112662 2130705107 452878066 -328726
            -855638204 1190966909 939548660</internalNodes>
          <leafValues>
            -7.3960328102111816e-01 8.1498450040817261e-01</leafValues></_></weakClassifiers></_>
    <!-- stage 14 -->
    <_>
      <maxWeakCount>3</maxWeakCount>
      <stageThreshold>-8.5655266046524048e-01</stageThreshold>
      <weakClassifiers>
        <_>
          <internalNodes>
            0 -1 36 -1726261871 1451262216 335601945 -805191168
            -1601898498 -83708009 -813658114 -1425999327</internalNodes>
          <leafValues>
            -8.2668501138687134e-01 9.4984328746795654e-01</leafValues></_>
        <_>
          <internalNodes>
            0 -1 33 -720779176 -1858076399 1342277745 -788529149
            -2146827638 1174667274 18569 2064052355</internalNodes>
          <leafValues>
            -7.7280902862548828e-01 7.4524885416030884e-01</leafValues></_>
        <_>
          <internalNodes>
            0 -1 61 1746538649 -201195520 1090585623 1347094657
            270700680 -939524096 537461261 -543277047</internalNodes>
          <leafValues>
            -7.7511650323867798e-01 7.7195471525192261e-01</leafValues></_></weakClassifiers></_>
    <!-- stage 15 -->
    <_>
      <maxWeakCount>3</maxWeakCount>
      <stageThreshold>-1.0298944711685181e+00</stageThreshold>
      <weakClassifiers>
        <_>
          <internalNodes>
            0 -1 44 -1744817976 458752 16818176 -2147418112 -2147450878
            1610678273 1073774690 1052672</internalNodes>
          <leafValues>
            -9.7794485092163086e-01 8.9306932687759399e-01</leafValues></_>
        <_>
          <internalNodes>
            0 -1 70 1359042560 -922746812 268435520 -1878982656 0
            -2147483648 25 -1564360192</internalNodes>
          <leafValues>
            -9.3673282861709595e-01 9.4860398769378662e-01</leafValues></_>
        <_>
          <internalNodes>
            0 -1 4 -1073741624 1090519040 17472 134283392 655368
            134217728 134523009 -2080358328</internalNodes>
          <leafValues>
            -9.4598287343978882e-01 8.8478326797485352e-01</leafValues></_></weakClassifiers></_>
    <!-- stage 16 -->
    <_>
      <maxWeakCount>4</maxWeakCount>
      <stageThreshold>-1.5979084968566895e+00</stageThreshold>
      <weakClassifiers>
        <_>
          <internalNodes>
            0 -1 34 -336063056 -3267104 -1004531629 1064992640 -2100016
            1609498085 1615711348 -66795859</internalNodes>
          <leafValues>
            -8.7553042173385620e-01 9.4195252656936646e-01</leafValues></_>
        <_>
          <internalNodes>
            0 -1 69 -536721307 -1870659584 65536 -1862270720 -2139062262
            -2013200384 134259242 -1911352021</internalNodes>
          <leafValues>
            -7.8196293115615845e-01 8.9558124542236328e-01</leafValues></_>
        <_>
          <internalNodes>
            0 -1 23 1329585365 2147286847 -129 2147311359 237007908
            -428539907 -1082671593 2141116414</internalNodes>
          <leafValues>
            -7.3067569732666016e-01 8.6774712800979614e-01</leafValues></_>
        <_>
          <internalNodes>
            0 -1 56 352862353 -2147352576 34603267 26218497 -2146432887
            -1861877757 134268934 521290067</internalNodes>
          <leafValues>
            -7.8500545024871826e-01 7.9026043415069580e-01</leafValues></_></weakClassifiers></_>
    <!-- stage 17 -->
    <_>
      <maxWeakCount>3</maxWeakCount>
      <stageThreshold>-9.0338760614395142e-01</stageThreshold>
      <weakClassifiers>
        <_>
          <internalNodes>
            0 -1 72 1526841738 -517856510 0 -729710559 262281
            -2145351638 -2145353655 -1535000309</internalNodes>
          <leafValues>
            -8.9145052433013916e-01 8.5167461633682251e-01</leafValues></_>
        <_>
          <internalNodes>
            0 -1 27 1783726161 -788201472 82113 -855408638 268566665
            -2004353021 75530763 -1341910877</internalNodes>
          <leafValues>
            -7.8676736354827881e-01 9.4453215599060059e-01</leafValues></_>
        <_>
          <internalNodes>
            0 -1 0 -2142845982 17072128 1130513 1142423569 2 -2138931200
            -402634621 134598858</internalNodes>
          <leafValues>
            -8.6680704355239868e-01 7.7483028173446655e-01</leafValues></_></weakClassifiers></_>
    <!-- stage 18 -->
    <_>
      <maxWeakCount>2</maxWeakCount>
      <stageThreshold>-3.4116972237825394e-02</stageThreshold>
      <weakClassifiers>
        <_>
          <internalNodes>
            0 -1 22 138432528 1619001858 3145729 16777216 -2145320704
            134742016 32896 272760960</internalNodes>
          <leafValues>
            -9.8198199272155762e-01 9.2031872272491455e-01</leafValues></_>
        <_>
          <internalNodes>
            0 -1 67 403706000 196616 1073741840 268435457 8192
            -2138537984 67174403 564151176</internalNodes>
          <leafValues>
            -9.5443570613861084e-01 9.4928598403930664e-01</leafValues></_></weakClassifiers></_>
    <!-- stage 19 -->
    <_>
      <maxWeakCount>4</maxWeakCount>
      <stageThreshold>-1.6727380752563477e+00</stageThreshold>
      <weakClassifiers>
        <_>
          <internalNodes>
            0 -1 32 612538963 1073807744 268435459 230162624 -1368142710
            -2008938367 939556864 -656388777</internalNodes>
          <leafValues>
            -8.7312030792236328e-01 9.6236556768417358e-01</leafValues></_>
        <_>
          <internalNodes>
            0 -1 25 -754953775 1368588296 33558791 -805289919 33554433
            -1954545663 -2147155695 -1205141490</internalNodes>
          <leafValues>
            -7.5075435638427734e-01 9.9269396066665649e-01</leafValues></_>
        <_>
          <internalNodes>
            0 -1 65 1082789976 2030043173 35073 1426097280 1082165442
            167772160 8520042 -670924216</internalNodes>
          <leafValues>
            -7.7451235055923462e-01 8.4588092565536499e-01</leafValues></_>
        <_>
          <internalNodes>
            0 -1 35 -1047379728 1887977602 -2147418080 285278465 16656
            131201 -2147480870 1929400667</internalNodes>
          <leafValues>
            -8.8673299551010132e-01 7.2564893960952759e-01</leafValues></_></weakClassifiers></_></stages>
  <features>
    <_>
      <rect>
        0 19 6 14</rect></_>
    <_>
      <rect>
        1 17 11 20</rect></_>
    <_>
      <rect>
        1 25 8 11</rect></_>
    <_>
      <rect>
        1 35 19 11</rect></_>
    <_>
      <rect>
        1 44 19 8</rect></_>
    <_>
      <rect>
        3 24 12 10</rect></_>
    <_>
      <rect>
        4 12 8 6</rect></_>
    <_>
      <rect>
        6 11 36 19</rect></_>
    <_>
      <rect>
        6 25 6 7</rect></_>
    <_>
      <rect>
        6 26 10 13</rect></_>
    <_>
      <rect>
        6 28 23 17</rect></_>
    <_>
      <rect>
        7 6 28 14</rect></_>
    <_>
      <rect>
        7 26 5 8</rect></_>
    <_>
      <rect>
        7 35 24 15</rect></_>
    <_>
      <rect>
        8 1 25 13</rect></_>
    <_>
      <rect>
        8 21 11 7</rect></_>
    <_>
      <rect>
        8 29 30 15</rect></_>
    <_>
      <rect>
        9 27 32 11</rect></_>
    <_>
      <rect>
        9 34 30 13</rect></_>
    <_>
      <rect>
        10 41 20 11</rect></_>
    <_>
      <rect>
        11 4 28 13</rect></_>
    <_>
      <rect>
        11 9 24 9</rect></_>
    <_>
      <rect>
        11 13 18 7</rect></_>
    <_>
      <rect>
        12 36 20 14</rect></_>
    <_>
      <rect>
        13 0 27 17</rect></_>
    <_>
      <rect>
        16 5 28 10</rect></_>
    <_>
      <rect>
        16 28 6 5</rect></_>
    <_>
      <rect>
        17 13 25 10</rect></_>
    <_>
      <rect>
        18 6 27 14</rect></_>
    <_>
      <rect>
        18 9 16 5</rect></_>
    <_>
      <rect>
        18 42 8 7</rect></_>
    <_>
      <rect>
        19 10 19 6</rect></_>
    <_>
      <rect>
        19 30 5 3</rect></_>
    <_>
      <rect>
        21 47 17 5</rect></_>
    <_>
      <rect>
        23 14 21 5</rect></_>
    <_>
      <rect>
        24 43 5 4</rect></_>
    <_>
      <rect>
        24 43 23 12</rect></_>
    <_>
      <rect>
        26 11 16 4</rect></_>
    <_>
      <rect>
        26 47 26 8</rect></_>
    <_>
      <rect>
        29 9 23 9</rect></_>
    <_>
      <rect>
        30 56 16 5</rect></_>
    <_>
      <rect>
        32 40 13 6</rect></_>
    <_>
      <rect>
        34 9 17 6</rect></_>
    <_>
      <rect>
        34 19 13 3</rect></_>
    <_>
      <rect>
        34 53 13 8</rect></_>
    <_>
      <rect>
        35 12 10 4</rect></_>
    <_>
      <rect>
        35 17 21 5</rect></_>
    <_>
      <rect>
        35 19 12 3</rect></_>
    <_>
      <rect>
        35 54 17 6</rect></_>
    <_>
      <rect>
        36 15 9 3</rect></_>
    <_>
      <rect>
        37 14 16 4</rect></_>
    <_>
      <rect>
        38 9 12 3</rect></_>
    <_>
      <rect>
        38 11 13 5</rect></_>
    <_>
      <rect>
        38 12 24 5</rect></_>
    <_>
      <rect>
        38 48 22 6</rect></_>
    <_>
      <rect>
        40 51 11 3</rect></_>
    <_>
      <rect>
        41 13 5 3</rect></_>
    <_>
      <rect>
        43 18 14 4</rect></_>
    <_>
      <rect>
        44 15 11 4</rect></_>
    <_>
      <rect>
        46 15 12 4</rect></_>
    <_>
      <rect>
        48 53 8 4</rect></_>
    <_>
      <rect>
        49 10 8 4</rect></_>
    <_>
      <rect>
        49 28 18 9</rect></_>
    <_>
      <rect>
        51 18 9 3</rect></_>
    <_>
      <rect>
        58 50 6 4</rect></_>
    <_>
      <rect>
        66 13 16 6</rect></_>
    <_>
      <rect>
        69 10 14 6</rect></_>
    <_>
      <rect>
        69 46 7 4</rect></_>
    <_>
      <rect>
        71 31 14 9</rect></_>
    <_>
      <rect>
        79 18 10 10</rect></_>
    <_>
      <rect>
        92 21 9 9</rect></_>
    <_>
      <rect>
        92 23 9 12</rect></_>
    <_>
      <rect>
        92 24 7 12</rect></_>
    <_>
      <rect>
        92 26 8 5</rect></_>
    <_>
      <rect>
        94 16 8 13</rect></_>
    <_>
      <rect>
        98 28 6 11</rect></_></features></cascade>
</opencv_storage>
