<?xml version="1.0"?>
<opencv_storage>
<stage6>
  <maxWeakCount>4</maxWeakCount>
  <stageThreshold>-1.4550632238388062e+00</stageThreshold>
  <weakClassifiers>
    <_>
      <internalNodes>
        0 -1 703978 -1811818159 1526792728 -2147188717 1132478465
        -2130343534 33570944 141 -567815913</internalNodes>
      <leafValues>
        -8.4896808862686157e-01 8.4239131212234497e-01</leafValues></_>
    <_>
      <internalNodes>
        0 -1 1279663 1060820187 1844290552 -1109458975 -1008341275
        -1342245502 -11534345 -537362571 -1398639995</internalNodes>
      <leafValues>
        -6.9488179683685303e-01 7.8940421342849731e-01</leafValues></_>
    <_>
      <internalNodes>
        0 -1 1490303 -1743319015 1833107458 268500993 403836944
        -805306278 -1308556286 -2147467080 -1958036977</internalNodes>
      <leafValues>
        -7.1886914968490601e-01 7.4521338939666748e-01</leafValues></_>
    <_>
      <internalNodes>
        0 -1 2063135 -33860348 -1178724385 2130640272 2113789823
        2142175195 1140785151 1723759676 -373653669</internalNodes>
      <leafValues>
        -6.3179439306259155e-01 8.0765581130981445e-01</leafValues></_></weakClassifiers></stage6>
</opencv_storage>
