<?xml version="1.0"?>
<opencv_storage>
<stage1>
  <maxWeakCount>6</maxWeakCount>
  <stageThreshold>-1.8326921463012695e+00</stageThreshold>
  <weakClassifiers>
    <_>
      <internalNodes>
        0 -1 389928 -100674307 -6826505 -620111907 -45098541 940851420
        -81340165 -553460225 -9437473</internalNodes>
      <leafValues>
        -8.1028455495834351e-01 2.4748490750789642e-01</leafValues></_>
    <_>
      <internalNodes>
        0 -1 1348066 464214233 -1895346046 2059818483 1564430825
        -1080362278 -342900597 -635290689 -1355023105</internalNodes>
      <leafValues>
        -6.7631959915161133e-01 4.8530679941177368e-01</leafValues></_>
    <_>
      <internalNodes>
        0 -1 342391 -1836843030 -549219903 -2121049790 -3287913
        -1341466161 -1629763401 525061059 -2627245</internalNodes>
      <leafValues>
        -6.9467067718505859e-01 5.0345879793167114e-01</leafValues></_>
    <_>
      <internalNodes>
        0 -1 1515003 1034443001 529486496 1209094963 521361817
        2065357534 -27547985 864184539 -1691722916</internalNodes>
      <leafValues>
        -7.1148473024368286e-01 4.9662894010543823e-01</leafValues></_>
    <_>
      <internalNodes>
        0 -1 1860963 -1086825220 -673512254 -1258225639 2143375753
        -1937075617 -341082054 -930206529 -275359667</internalNodes>
      <leafValues>
        -6.4136111736297607e-01 5.6803113222122192e-01</leafValues></_>
    <_>
      <internalNodes>
        0 -1 2378314 -206325754 -3944438 16795016 -183517120 310591528
        -83148743 25213905 -159128597</internalNodes>
      <leafValues>
        -6.5891820192337036e-01 5.3980213403701782e-01</leafValues></_></weakClassifiers></stage1>
</opencv_storage>
