<?xml version="1.0"?>
<opencv_storage>
<stage9>
  <maxWeakCount>4</maxWeakCount>
  <stageThreshold>-1.5557183027267456e+00</stageThreshold>
  <weakClassifiers>
    <_>
      <internalNodes>
        0 -1 1185670 1493172304 402653186 273 -1056898795 -2097114552
        809533568 -1038057271 2072952970</internalNodes>
      <leafValues>
        -8.8686484098434448e-01 8.4541064500808716e-01</leafValues></_>
    <_>
      <internalNodes>
        0 -1 1648606 -14965533 1529576066 2130684927 1656450234
        -1623728129 498593783 -1745494385 1134802227</internalNodes>
      <leafValues>
        -7.5447356700897217e-01 9.1304165124893188e-01</leafValues></_>
    <_>
      <internalNodes>
        0 -1 291685 -2129440655 88211602 -1879048175 -1740046334
        -1996455800 -1660944256 49292 -1207760381</internalNodes>
      <leafValues>
        -7.3190164566040039e-01 8.0948597192764282e-01</leafValues></_>
    <_>
      <internalNodes>
        0 -1 1346799 -1878976303 -1928265727 65747 268701776 -1205690358
        -1409154920 9 738361987</internalNodes>
      <leafValues>
        -7.1542781591415405e-01 8.1752181053161621e-01</leafValues></_></weakClassifiers></stage9>
</opencv_storage>
