<?xml version="1.0"?>
<opencv_storage>
<stage5>
  <maxWeakCount>4</maxWeakCount>
  <stageThreshold>-1.7016259431838989e+00</stageThreshold>
  <weakClassifiers>
    <_>
      <internalNodes>
        0 -1 1567314 -1324985125 -484440878 1476415635 -653093875
        -938898746 -1711259640 -402621021 -636755813</internalNodes>
      <leafValues>
        -8.3221477270126343e-01 5.7004833221435547e-01</leafValues></_>
    <_>
      <internalNodes>
        0 -1 312473 1309237677 1436795174 -217956345 -1688870863
        1879863560 -1975301871 1266698975 -1367162421</internalNodes>
      <leafValues>
        -7.5130206346511841e-01 5.6497341394424438e-01</leafValues></_>
    <_>
      <internalNodes>
        0 -1 742544 1342796241 1103433984 69843 344003585 -2063482672
        -754237438 -1073711925 -1818771206</internalNodes>
      <leafValues>
        -6.1684221029281616e-01 7.1910154819488525e-01</leafValues></_>
    <_>
      <internalNodes>
        0 -1 267411 -562323898 1900079616 1074790580 806391835
        -1459457779 1610891402 268966220 -241186773</internalNodes>
      <leafValues>
        -8.1754237413406372e-01 5.3256970643997192e-01</leafValues></_></weakClassifiers></stage5>
</opencv_storage>
