<?xml version="1.0"?>
<opencv_storage>
<stage8>
  <maxWeakCount>4</maxWeakCount>
  <stageThreshold>-1.7080209255218506e+00</stageThreshold>
  <weakClassifiers>
    <_>
      <internalNodes>
        0 -1 999388 1854884081 -8514791 -1627390285 1963130881
        -813953334 -1485899905 544636799 -1081944621</internalNodes>
      <leafValues>
        -8.2160919904708862e-01 8.8307690620422363e-01</leafValues></_>
    <_>
      <internalNodes>
        0 -1 1321497 -1534979938 -1056681918 35880977 -734967679 32782
        -1962409911 -536346105 -1391853303</internalNodes>
      <leafValues>
        -7.8592818975448608e-01 5.2175498008728027e-01</leafValues></_>
    <_>
      <internalNodes>
        0 -1 306754 -1539599087 -1071775280 1073819648 1141153865
        -1324793779 -2147483134 37916931 -124795773</internalNodes>
      <leafValues>
        -7.5841248035430908e-01 6.5925270318984985e-01</leafValues></_>
    <_>
      <internalNodes>
        0 -1 444549 -1862184813 1465028928 79696143 -1610022877
        -2147450752 -2013265888 134316186 -1186347007</internalNodes>
      <leafValues>
        -6.4975416660308838e-01 8.0490678548812866e-01</leafValues></_></weakClassifiers></stage8>
</opencv_storage>
