<?xml version="1.0"?>
<opencv_storage>
<stage13>
  <maxWeakCount>7</maxWeakCount>
  <stageThreshold>-1.7130982875823975e+00</stageThreshold>
  <weakClassifiers>
    <_>
      <internalNodes>
        0 -1 255157 1.9762407988309860e-02</internalNodes>
      <leafValues>
        -7.8927910327911377e-01 3.7864077091217041e-01</leafValues></_>
    <_>
      <internalNodes>
        0 -1 181122 6.5290345810353756e-04</internalNodes>
      <leafValues>
        -8.6260408163070679e-01 1.2053501605987549e-01</leafValues></_>
    <_>
      <internalNodes>
        0 -1 334109 -1.4385569375008345e-03</internalNodes>
      <leafValues>
        2.4343456327915192e-01 -7.5013691186904907e-01</leafValues></_>
    <_>
      <internalNodes>
        0 -1 226408 -1.5139561891555786e-01</internalNodes>
      <leafValues>
        5.3652417659759521e-01 -4.9991157650947571e-01</leafValues></_>
    <_>
      <internalNodes>
        0 -1 307933 1.4422291889786720e-02</internalNodes>
      <leafValues>
        -3.5053279995918274e-01 8.0915915966033936e-01</leafValues></_>
    <_>
      <internalNodes>
        0 -1 52539 -2.0995675004087389e-04</internalNodes>
      <leafValues>
        -9.6703940629959106e-01 3.1379643082618713e-01</leafValues></_>
    <_>
      <internalNodes>
        0 -1 52539 1.0723722516559064e-04</internalNodes>
      <leafValues>
        2.8861540555953979e-01 -8.0443733930587769e-01</leafValues></_></weakClassifiers></stage13>
</opencv_storage>
