<?xml version="1.0"?>
<opencv_storage>
<stage8>
  <maxWeakCount>5</maxWeakCount>
  <stageThreshold>-1.8213956356048584e+00</stageThreshold>
  <weakClassifiers>
    <_>
      <internalNodes>
        0 -1 351440 5.7105384767055511e-02</internalNodes>
      <leafValues>
        -7.9117912054061890e-01 8.6486488580703735e-01</leafValues></_>
    <_>
      <internalNodes>
        0 -1 281865 8.8860077084973454e-04</internalNodes>
      <leafValues>
        2.3376402258872986e-01 -9.3146347999572754e-01</leafValues></_>
    <_>
      <internalNodes>
        0 -1 58399 1.0199046693742275e-02</internalNodes>
      <leafValues>
        -6.3681060075759888e-01 4.6835726499557495e-01</leafValues></_>
    <_>
      <internalNodes>
        0 -1 52841 -2.8764717280864716e-03</internalNodes>
      <leafValues>
        -9.4306921958923340e-01 2.8931990265846252e-01</leafValues></_>
    <_>
      <internalNodes>
        0 -1 181087 2.7936309925280511e-04</internalNodes>
      <leafValues>
        -8.1793433427810669e-01 3.1589925289154053e-01</leafValues></_></weakClassifiers></stage8>
</opencv_storage>
