<?xml version="1.0"?>
<opencv_storage>
<stage10>
  <maxWeakCount>5</maxWeakCount>
  <stageThreshold>-1.8123503923416138e+00</stageThreshold>
  <weakClassifiers>
    <_>
      <internalNodes>
        0 -1 356613 -9.4477236270904541e-03</internalNodes>
      <leafValues>
        1.1673151515424252e-02 -8.8146549463272095e-01</leafValues></_>
    <_>
      <internalNodes>
        0 -1 348210 1.4034098014235497e-02</internalNodes>
      <leafValues>
        -5.6825637817382813e-01 5.4071485996246338e-01</leafValues></_>
    <_>
      <internalNodes>
        0 -1 113066 5.3808148950338364e-03</internalNodes>
      <leafValues>
        2.2226303815841675e-01 -9.6325320005416870e-01</leafValues></_>
    <_>
      <internalNodes>
        0 -1 204025 3.6573255783878267e-05</internalNodes>
      <leafValues>
        -8.3080160617828369e-01 2.4847967922687531e-01</leafValues></_>
    <_>
      <internalNodes>
        0 -1 254037 -3.6203651688992977e-03</internalNodes>
      <leafValues>
        -9.3932682275772095e-01 2.4591012299060822e-01</leafValues></_></weakClassifiers></stage10>
</opencv_storage>
