<?xml version="1.0"?>
<opencv_storage>
<stage5>
  <maxWeakCount>6</maxWeakCount>
  <stageThreshold>-1.6177846193313599e+00</stageThreshold>
  <weakClassifiers>
    <_>
      <internalNodes>
        0 -1 77401 8.0535486340522766e-02</internalNodes>
      <leafValues>
        -8.6268657445907593e-01 2.8888890147209167e-01</leafValues></_>
    <_>
      <internalNodes>
        0 -1 18341 -2.1265509724617004e-01</internalNodes>
      <leafValues>
        3.4298026561737061e-01 -7.8607940673828125e-01</leafValues></_>
    <_>
      <internalNodes>
        0 -1 323919 1.9045436754822731e-02</internalNodes>
      <leafValues>
        -7.4026012420654297e-01 4.9517336487770081e-01</leafValues></_>
    <_>
      <internalNodes>
        0 -1 121245 -4.6561239287257195e-03</internalNodes>
      <leafValues>
        3.1845030188560486e-01 -8.4903645515441895e-01</leafValues></_>
    <_>
      <internalNodes>
        0 -1 127183 -9.8871730733662844e-04</internalNodes>
      <leafValues>
        -9.4685810804367065e-01 2.4974475800991058e-01</leafValues></_>
    <_>
      <internalNodes>
        0 -1 51387 -7.1305632591247559e-03</internalNodes>
      <leafValues>
        2.4147358536720276e-01 -9.6982705593109131e-01</leafValues></_></weakClassifiers></stage5>
</opencv_storage>
