<?xml version="1.0"?>
<opencv_storage>
<stage14>
  <maxWeakCount>8</maxWeakCount>
  <stageThreshold>-1.7751104831695557e+00</stageThreshold>
  <weakClassifiers>
    <_>
      <internalNodes>
        0 -1 359391 -5.0021326169371605e-03</internalNodes>
      <leafValues>
        -9.8484851419925690e-02 -8.5667753219604492e-01</leafValues></_>
    <_>
      <internalNodes>
        0 -1 22143 -2.9632469639182091e-02</internalNodes>
      <leafValues>
        2.2236253321170807e-01 -7.1189248561859131e-01</leafValues></_>
    <_>
      <internalNodes>
        0 -1 349687 -2.4563618935644627e-03</internalNodes>
      <leafValues>
        4.3571102619171143e-01 -4.9603065848350525e-01</leafValues></_>
    <_>
      <internalNodes>
        0 -1 321282 6.2466331291943789e-04</internalNodes>
      <leafValues>
        -6.7788064479827881e-01 3.2929769158363342e-01</leafValues></_>
    <_>
      <internalNodes>
        0 -1 243110 3.3172771334648132e-02</internalNodes>
      <leafValues>
        3.1218823790550232e-01 -8.2308167219161987e-01</leafValues></_>
    <_>
      <internalNodes>
        0 -1 257923 9.4542372971773148e-04</internalNodes>
      <leafValues>
        -7.0993965864181519e-01 2.8452017903327942e-01</leafValues></_>
    <_>
      <internalNodes>
        0 -1 174138 1.5332704409956932e-02</internalNodes>
      <leafValues>
        2.2180545330047607e-01 -9.4357305765151978e-01</leafValues></_>
    <_>
      <internalNodes>
        0 -1 175220 2.7384218992665410e-04</internalNodes>
      <leafValues>
        -7.6590222120285034e-01 2.7694848179817200e-01</leafValues></_></weakClassifiers></stage14>
</opencv_storage>
