<?xml version="1.0"?>
<opencv_storage>
<cascade>
  <stageType>BOOST</stageType>
  <featureType>HAAR</featureType>
  <height>80</height>
  <width>120</width>
  <stageParams>
    <boostType>GAB</boostType>
    <minHitRate>9.9500000476837158e-01</minHitRate>
    <maxFalseAlarm>5.0000000000000000e-01</maxFalseAlarm>
    <weightTrimRate>9.4999998807907104e-01</weightTrimRate>
    <maxDepth>1</maxDepth>
    <maxWeakCount>100</maxWeakCount></stageParams>
  <featureParams>
    <maxCatCount>0</maxCatCount>
    <featSize>1</featSize>
    <mode>BASIC</mode></featureParams>
  <stageNum>3</stageNum>
  <stages>
    <!-- stage 0 -->
    <_>
      <maxWeakCount>4</maxWeakCount>
      <stageThreshold>-2.1200706958770752e+00</stageThreshold>
      <weakClassifiers>
        <_>
          <internalNodes>
            0 -1 1 -7.5688573997467756e-04</internalNodes>
          <leafValues>
            4.3589743971824646e-01 -9.3013101816177368e-01</leafValues></_>
        <_>
          <internalNodes>
            0 -1 0 9.4417445361614227e-03</internalNodes>
          <leafValues>
            -8.4829610586166382e-01 1.2054429203271866e-01</leafValues></_>
        <_>
          <internalNodes>
            0 -1 5 2.3147216998040676e-03</internalNodes>
          <leafValues>
            -5.9664583206176758e-01 6.1980670690536499e-01</leafValues></_>
        <_>
          <internalNodes>
            0 -1 10 -2.2114738821983337e-03</internalNodes>
          <leafValues>
            4.8522001504898071e-01 -7.1383827924728394e-01</leafValues></_></weakClassifiers></_>
    <!-- stage 1 -->
    <_>
      <maxWeakCount>4</maxWeakCount>
      <stageThreshold>-1.9253079891204834e+00</stageThreshold>
      <weakClassifiers>
        <_>
          <internalNodes>
            0 -1 13 -5.0141557585448027e-04</internalNodes>
          <leafValues>
            5.8620691299438477e-01 -9.2563980817794800e-01</leafValues></_>
        <_>
          <internalNodes>
            0 -1 8 3.1318699475377798e-03</internalNodes>
          <leafValues>
            -7.9165798425674438e-01 3.1095728278160095e-01</leafValues></_>
        <_>
          <internalNodes>
            0 -1 6 -4.7872075811028481e-05</internalNodes>
          <leafValues>
            4.9717414379119873e-01 -6.3986247777938843e-01</leafValues></_>
        <_>
          <internalNodes>
            0 -1 2 3.1848458456806839e-04</internalNodes>
          <leafValues>
            -6.7076301574707031e-01 4.8505303263664246e-01</leafValues></_></weakClassifiers></_>
    <!-- stage 2 -->
    <_>
      <maxWeakCount>6</maxWeakCount>
      <stageThreshold>-1.9016969203948975e+00</stageThreshold>
      <weakClassifiers>
        <_>
          <internalNodes>
            0 -1 7 -2.6434715837240219e-02</internalNodes>
          <leafValues>
            5.3846156597137451e-01 -9.2285436391830444e-01</leafValues></_>
        <_>
          <internalNodes>
            0 -1 4 6.4685097895562649e-03</internalNodes>
          <leafValues>
            -7.4000465869903564e-01 3.3835437893867493e-01</leafValues></_>
        <_>
          <internalNodes>
            0 -1 11 -2.7717859484255314e-04</internalNodes>
          <leafValues>
            6.8791198730468750e-01 -4.7777423262596130e-01</leafValues></_>
        <_>
          <internalNodes>
            0 -1 9 -1.3150635641068220e-04</internalNodes>
          <leafValues>
            -1. 3.0664697289466858e-01</leafValues></_>
        <_>
          <internalNodes>
            0 -1 12 2.5433238988625817e-05</internalNodes>
          <leafValues>
            -4.9106097221374512e-01 5.7122272253036499e-01</leafValues></_>
        <_>
          <internalNodes>
            0 -1 3 -4.1829727590084076e-02</internalNodes>
          <leafValues>
            4.4097438454627991e-01 -6.3893324136734009e-01</leafValues></_></weakClassifiers></_></stages>
  <features>
    <_>
      <rects>
        <_>
          4 20 30 19 -1.</_>
        <_>
          14 20 10 19 3.</_></rects>
      <tilted>0</tilted></_>
    <_>
      <rects>
        <_>
          5 8 2 18 -1.</_>
        <_>
          5 8 1 9 2.</_>
        <_>
          6 17 1 9 2.</_></rects>
      <tilted>0</tilted></_>
    <_>
      <rects>
        <_>
          10 42 24 1 -1.</_>
        <_>
          18 42 8 1 3.</_></rects>
      <tilted>0</tilted></_>
    <_>
      <rects>
        <_>
          11 6 94 62 -1.</_>
        <_>
          11 37 94 31 2.</_></rects>
      <tilted>0</tilted></_>
    <_>
      <rects>
        <_>
          29 58 32 10 -1.</_>
        <_>
          29 58 16 5 2.</_>
        <_>
          45 63 16 5 2.</_></rects>
      <tilted>0</tilted></_>
    <_>
      <rects>
        <_>
          33 9 28 8 -1.</_>
        <_>
          33 9 14 4 2.</_>
        <_>
          47 13 14 4 2.</_></rects>
      <tilted>0</tilted></_>
    <_>
      <rects>
        <_>
          34 1 8 2 -1.</_>
        <_>
          34 1 4 1 2.</_>
        <_>
          38 2 4 1 2.</_></rects>
      <tilted>0</tilted></_>
    <_>
      <rects>
        <_>
          36 63 44 14 -1.</_>
        <_>
          36 63 22 7 2.</_>
        <_>
          58 70 22 7 2.</_></rects>
      <tilted>0</tilted></_>
    <_>
      <rects>
        <_>
          39 56 14 12 -1.</_>
        <_>
          39 60 14 4 3.</_></rects>
      <tilted>0</tilted></_>
    <_>
      <rects>
        <_>
          49 35 10 12 -1.</_>
        <_>
          54 35 5 12 2.</_></rects>
      <tilted>0</tilted></_>
    <_>
      <rects>
        <_>
          60 38 30 16 -1.</_>
        <_>
          70 38 10 16 3.</_></rects>
      <tilted>0</tilted></_>
    <_>
      <rects>
        <_>
          101 33 9 1 -1.</_>
        <_>
          104 33 3 1 3.</_></rects>
      <tilted>0</tilted></_>
    <_>
      <rects>
        <_>
          102 43 2 2 -1.</_>
        <_>
          103 43 1 2 2.</_></rects>
      <tilted>0</tilted></_>
    <_>
      <rects>
        <_>
          103 32 3 5 -1.</_>
        <_>
          104 32 1 5 3.</_></rects>
      <tilted>0</tilted></_></features></cascade>
</opencv_storage>
