<?xml version="1.0"?>
<opencv_storage>
<stage2>
  <maxWeakCount>6</maxWeakCount>
  <stageThreshold>-1.9016969203948975e+00</stageThreshold>
  <weakClassifiers>
    <_>
      <internalNodes>
        0 -1 23116607 -2.6434715837240219e-02</internalNodes>
      <leafValues>
        5.3846156597137451e-01 -9.2285436391830444e-01</leafValues></_>
    <_>
      <internalNodes>
        0 -1 19364226 6.4685097895562649e-03</internalNodes>
      <leafValues>
        -7.4000465869903564e-01 3.3835437893867493e-01</leafValues></_>
    <_>
      <internalNodes>
        0 -1 43346133 -2.7717859484255314e-04</internalNodes>
      <leafValues>
        6.8791198730468750e-01 -4.7777423262596130e-01</leafValues></_>
    <_>
      <internalNodes>
        0 -1 29129630 -1.3150635641068220e-04</internalNodes>
      <leafValues>
        -1. 3.0664697289466858e-01</leafValues></_>
    <_>
      <internalNodes>
        0 -1 43472021 2.5433238988625817e-05</internalNodes>
      <leafValues>
        -4.9106097221374512e-01 5.7122272253036499e-01</leafValues></_>
    <_>
      <internalNodes>
        0 -1 7870130 -4.1829727590084076e-02</internalNodes>
      <leafValues>
        4.4097438454627991e-01 -6.3893324136734009e-01</leafValues></_></weakClassifiers></stage2>
</opencv_storage>
