<?xml version="1.0"?>
<opencv_storage>
<cascade>
  <stageType>BOOST</stageType>
  <featureType>HAAR</featureType>
  <height>60</height>
  <width>90</width>
  <stageParams>
    <boostType>GAB</boostType>
    <minHitRate>9.9500000476837158e-01</minHitRate>
    <maxFalseAlarm>5.0000000000000000e-01</maxFalseAlarm>
    <weightTrimRate>9.4999998807907104e-01</weightTrimRate>
    <maxDepth>1</maxDepth>
    <maxWeakCount>100</maxWeakCount></stageParams>
  <featureParams>
    <maxCatCount>0</maxCatCount>
    <featSize>1</featSize>
    <mode>BASIC</mode></featureParams>
  <stageNum>13</stageNum>
  <stages>
    <!-- stage 0 -->
    <_>
      <maxWeakCount>4</maxWeakCount>
      <stageThreshold>-2.2876377105712891e+00</stageThreshold>
      <weakClassifiers>
        <_>
          <internalNodes>
            0 -1 6 7.2007291018962860e-02</internalNodes>
          <leafValues>
            -9.5207822322845459e-01 6.8000000715255737e-01</leafValues></_>
        <_>
          <internalNodes>
            0 -1 4 -5.1136710681021214e-03</internalNodes>
          <leafValues>
            5.4069942235946655e-01 -8.5871368646621704e-01</leafValues></_>
        <_>
          <internalNodes>
            0 -1 42 3.5746048670262098e-03</internalNodes>
          <leafValues>
            -8.9888793230056763e-01 3.6957171559333801e-01</leafValues></_>
        <_>
          <internalNodes>
            0 -1 55 1.5029279747977853e-03</internalNodes>
          <leafValues>
            -8.2085978984832764e-01 4.2204222083091736e-01</leafValues></_></weakClassifiers></_>
    <!-- stage 1 -->
    <_>
      <maxWeakCount>4</maxWeakCount>
      <stageThreshold>-1.6256281137466431e+00</stageThreshold>
      <weakClassifiers>
        <_>
          <internalNodes>
            0 -1 17 -1.6129408031702042e-02</internalNodes>
          <leafValues>
            2.8571429848670959e-01 -9.5759367942810059e-01</leafValues></_>
        <_>
          <internalNodes>
            0 -1 35 2.2558912169188261e-03</internalNodes>
          <leafValues>
            -8.3704316616058350e-01 5.9217804670333862e-01</leafValues></_>
        <_>
          <internalNodes>
            0 -1 2 2.0322263240814209e-02</internalNodes>
          <leafValues>
            -6.5080094337463379e-01 7.9655283689498901e-01</leafValues></_>
        <_>
          <internalNodes>
            0 -1 12 1.2688725255429745e-03</internalNodes>
          <leafValues>
            -5.5653506517410278e-01 8.1980973482131958e-01</leafValues></_></weakClassifiers></_>
    <!-- stage 2 -->
    <_>
      <maxWeakCount>3</maxWeakCount>
      <stageThreshold>-1.6495090723037720e+00</stageThreshold>
      <weakClassifiers>
        <_>
          <internalNodes>
            0 -1 16 -2.2926434874534607e-02</internalNodes>
          <leafValues>
            3.4883719682693481e-01 -9.5954614877700806e-01</leafValues></_>
        <_>
          <internalNodes>
            0 -1 25 -1.6697492450475693e-02</internalNodes>
          <leafValues>
            3.7864312529563904e-01 -8.6435949802398682e-01</leafValues></_>
        <_>
          <internalNodes>
            0 -1 44 -5.2186921238899231e-03</internalNodes>
          <leafValues>
            1.7439661920070648e-01 -9.3085777759552002e-01</leafValues></_></weakClassifiers></_>
    <!-- stage 3 -->
    <_>
      <maxWeakCount>4</maxWeakCount>
      <stageThreshold>-1.6516771316528320e+00</stageThreshold>
      <weakClassifiers>
        <_>
          <internalNodes>
            0 -1 37 7.6207228004932404e-02</internalNodes>
          <leafValues>
            -9.5100438594818115e-01 3.7931033968925476e-01</leafValues></_>
        <_>
          <internalNodes>
            0 -1 21 -5.2983127534389496e-02</internalNodes>
          <leafValues>
            5.4592740535736084e-01 -8.4698480367660522e-01</leafValues></_>
        <_>
          <internalNodes>
            0 -1 24 -2.1795611828565598e-02</internalNodes>
          <leafValues>
            6.5289121866226196e-01 -6.2015348672866821e-01</leafValues></_>
        <_>
          <internalNodes>
            0 -1 39 -7.8836933244019747e-04</internalNodes>
          <leafValues>
            7.6646560430526733e-01 -4.4312155246734619e-01</leafValues></_></weakClassifiers></_>
    <!-- stage 4 -->
    <_>
      <maxWeakCount>3</maxWeakCount>
      <stageThreshold>-1.5939416885375977e+00</stageThreshold>
      <weakClassifiers>
        <_>
          <internalNodes>
            0 -1 3 3.5854123532772064e-02</internalNodes>
          <leafValues>
            -9.4355231523513794e-01 6.0000002384185791e-01</leafValues></_>
        <_>
          <internalNodes>
            0 -1 9 4.3397702276706696e-02</internalNodes>
          <leafValues>
            -7.8917521238327026e-01 3.3081027865409851e-01</leafValues></_>
        <_>
          <internalNodes>
            0 -1 53 -1.4403506647795439e-03</internalNodes>
          <leafValues>
            1.3878586888313293e-01 -8.9101356267929077e-01</leafValues></_></weakClassifiers></_>
    <!-- stage 5 -->
    <_>
      <maxWeakCount>5</maxWeakCount>
      <stageThreshold>-1.9630821943283081e+00</stageThreshold>
      <weakClassifiers>
        <_>
          <internalNodes>
            0 -1 47 -6.4067035913467407e-02</internalNodes>
          <leafValues>
            2.6717839486872963e-17 -9.5167654752731323e-01</leafValues></_>
        <_>
          <internalNodes>
            0 -1 20 -2.5866210460662842e-02</internalNodes>
          <leafValues>
            2.7348810434341431e-01 -8.2221925258636475e-01</leafValues></_>
        <_>
          <internalNodes>
            0 -1 28 -2.4789921939373016e-02</internalNodes>
          <leafValues>
            5.4056835174560547e-01 -5.9541475772857666e-01</leafValues></_>
        <_>
          <internalNodes>
            0 -1 45 -3.4368042834103107e-03</internalNodes>
          <leafValues>
            -9.5968848466873169e-01 2.5825944542884827e-01</leafValues></_>
        <_>
          <internalNodes>
            0 -1 34 3.2794948201626539e-03</internalNodes>
          <leafValues>
            -9.4773834943771362e-01 2.0486332476139069e-01</leafValues></_></weakClassifiers></_>
    <!-- stage 6 -->
    <_>
      <maxWeakCount>5</maxWeakCount>
      <stageThreshold>-2.1418256759643555e+00</stageThreshold>
      <weakClassifiers>
        <_>
          <internalNodes>
            0 -1 41 -1.0914167761802673e-01</internalNodes>
          <leafValues>
            2.2580644488334656e-01 -9.4997549057006836e-01</leafValues></_>
        <_>
          <internalNodes>
            0 -1 23 -1.2762682512402534e-02</internalNodes>
          <leafValues>
            2.5655514001846313e-01 -8.1494659185409546e-01</leafValues></_>
        <_>
          <internalNodes>
            0 -1 59 -6.6768587566912174e-04</internalNodes>
          <leafValues>
            2.5720980763435364e-01 -6.9515597820281982e-01</leafValues></_>
        <_>
          <internalNodes>
            0 -1 30 -4.9832919612526894e-03</internalNodes>
          <leafValues>
            -9.3113565444946289e-01 2.2187051177024841e-01</leafValues></_>
        <_>
          <internalNodes>
            0 -1 36 4.6100580948404968e-04</internalNodes>
          <leafValues>
            -8.5598391294479370e-01 2.9019123315811157e-01</leafValues></_></weakClassifiers></_>
    <!-- stage 7 -->
    <_>
      <maxWeakCount>5</maxWeakCount>
      <stageThreshold>-1.8143339157104492e+00</stageThreshold>
      <weakClassifiers>
        <_>
          <internalNodes>
            0 -1 13 -2.2463968396186829e-01</internalNodes>
          <leafValues>
            9.6774190664291382e-02 -9.4801372289657593e-01</leafValues></_>
        <_>
          <internalNodes>
            0 -1 1 1.2621742486953735e-01</internalNodes>
          <leafValues>
            -7.6979380846023560e-01 4.5424938201904297e-01</leafValues></_>
        <_>
          <internalNodes>
            0 -1 57 -1.4589603990316391e-02</internalNodes>
          <leafValues>
            5.7514590024948120e-01 -6.0496437549591064e-01</leafValues></_>
        <_>
          <internalNodes>
            0 -1 32 2.6409936253912747e-05</internalNodes>
          <leafValues>
            2.9985722899436951e-01 -9.1186726093292236e-01</leafValues></_>
        <_>
          <internalNodes>
            0 -1 51 4.0359847480431199e-04</internalNodes>
          <leafValues>
            2.4019494652748108e-01 -9.4734269380569458e-01</leafValues></_></weakClassifiers></_>
    <!-- stage 8 -->
    <_>
      <maxWeakCount>6</maxWeakCount>
      <stageThreshold>-2.4375755786895752e+00</stageThreshold>
      <weakClassifiers>
        <_>
          <internalNodes>
            0 -1 15 -1.3786436989903450e-02</internalNodes>
          <leafValues>
            1.0526315867900848e-01 -9.5177167654037476e-01</leafValues></_>
        <_>
          <internalNodes>
            0 -1 19 1.1325061786919832e-03</internalNodes>
          <leafValues>
            -7.9567611217498779e-01 3.7058484554290771e-01</leafValues></_>
        <_>
          <internalNodes>
            0 -1 22 -9.8746200092136860e-04</internalNodes>
          <leafValues>
            6.5125304460525513e-01 -4.8569232225418091e-01</leafValues></_>
        <_>
          <internalNodes>
            0 -1 60 -6.4154330175369978e-04</internalNodes>
          <leafValues>
            3.1277161836624146e-01 -7.8282618522644043e-01</leafValues></_>
        <_>
          <internalNodes>
            0 -1 40 1.0013903956860304e-03</internalNodes>
          <leafValues>
            -7.6308983564376831e-01 3.1668362021446228e-01</leafValues></_>
        <_>
          <internalNodes>
            0 -1 33 -8.6914952844381332e-03</internalNodes>
          <leafValues>
            -1. 2.4588273465633392e-01</leafValues></_></weakClassifiers></_>
    <!-- stage 9 -->
    <_>
      <maxWeakCount>5</maxWeakCount>
      <stageThreshold>-1.8617250919342041e+00</stageThreshold>
      <weakClassifiers>
        <_>
          <internalNodes>
            0 -1 18 2.3709516972303391e-03</internalNodes>
          <leafValues>
            -9.4441735744476318e-01 3.6842104792594910e-01</leafValues></_>
        <_>
          <internalNodes>
            0 -1 14 1.5375025570392609e-02</internalNodes>
          <leafValues>
            -7.9475253820419312e-01 1.7024277150630951e-01</leafValues></_>
        <_>
          <internalNodes>
            0 -1 7 -2.1686406806111336e-02</internalNodes>
          <leafValues>
            7.4144297838211060e-01 -4.6839699149131775e-01</leafValues></_>
        <_>
          <internalNodes>
            0 -1 38 5.7661458849906921e-03</internalNodes>
          <leafValues>
            3.1567159295082092e-01 -9.0070641040802002e-01</leafValues></_>
        <_>
          <internalNodes>
            0 -1 48 4.3819655547849834e-04</internalNodes>
          <leafValues>
            -7.6796805858612061e-01 2.8155294060707092e-01</leafValues></_></weakClassifiers></_>
    <!-- stage 10 -->
    <_>
      <maxWeakCount>5</maxWeakCount>
      <stageThreshold>-1.7803236246109009e+00</stageThreshold>
      <weakClassifiers>
        <_>
          <internalNodes>
            0 -1 8 -2.6843883097171783e-02</internalNodes>
          <leafValues>
            2.5000000000000000e-01 -9.4623655080795288e-01</leafValues></_>
        <_>
          <internalNodes>
            0 -1 11 4.9457047134637833e-02</internalNodes>
          <leafValues>
            -7.4688482284545898e-01 5.9450984001159668e-01</leafValues></_>
        <_>
          <internalNodes>
            0 -1 46 1.4440130325965583e-04</internalNodes>
          <leafValues>
            -7.8355944156646729e-01 2.2364643216133118e-01</leafValues></_>
        <_>
          <internalNodes>
            0 -1 56 1.7552947974763811e-04</internalNodes>
          <leafValues>
            2.6301869750022888e-01 -7.9998558759689331e-01</leafValues></_>
        <_>
          <internalNodes>
            0 -1 0 1.0003939270973206e-02</internalNodes>
          <leafValues>
            -5.2042526006698608e-01 4.8913687467575073e-01</leafValues></_></weakClassifiers></_>
    <!-- stage 11 -->
    <_>
      <maxWeakCount>6</maxWeakCount>
      <stageThreshold>-2.3748395442962646e+00</stageThreshold>
      <weakClassifiers>
        <_>
          <internalNodes>
            0 -1 5 -2.7460349723696709e-02</internalNodes>
          <leafValues>
            6.6666670143604279e-02 -9.4705879688262939e-01</leafValues></_>
        <_>
          <internalNodes>
            0 -1 52 4.7947484999895096e-03</internalNodes>
          <leafValues>
            -7.5522929430007935e-01 5.7794851064682007e-01</leafValues></_>
        <_>
          <internalNodes>
            0 -1 26 -5.8526091743260622e-04</internalNodes>
          <leafValues>
            3.7751924991607666e-01 -5.9343433380126953e-01</leafValues></_>
        <_>
          <internalNodes>
            0 -1 58 -9.5357338432222605e-04</internalNodes>
          <leafValues>
            3.8217064738273621e-01 -6.1936020851135254e-01</leafValues></_>
        <_>
          <internalNodes>
            0 -1 49 -5.2679539658129215e-04</internalNodes>
          <leafValues>
            -9.2300218343734741e-01 2.5421422719955444e-01</leafValues></_>
        <_>
          <internalNodes>
            0 -1 31 -1.4286765363067389e-03</internalNodes>
          <leafValues>
            -8.1337499618530273e-01 2.8602889180183411e-01</leafValues></_></weakClassifiers></_>
    <!-- stage 12 -->
    <_>
      <maxWeakCount>6</maxWeakCount>
      <stageThreshold>-2.0661814212799072e+00</stageThreshold>
      <weakClassifiers>
        <_>
          <internalNodes>
            0 -1 43 -2.3783029988408089e-02</internalNodes>
          <leafValues>
            6.6666668653488159e-01 -9.4169098138809204e-01</leafValues></_>
        <_>
          <internalNodes>
            0 -1 29 -2.2730010095983744e-03</internalNodes>
          <leafValues>
            -1.7103832215070724e-02 -8.1110280752182007e-01</leafValues></_>
        <_>
          <internalNodes>
            0 -1 10 -8.0306995660066605e-03</internalNodes>
          <leafValues>
            4.3284845352172852e-01 -5.7931697368621826e-01</leafValues></_>
        <_>
          <internalNodes>
            0 -1 54 1.7497777007520199e-03</internalNodes>
          <leafValues>
            -8.4009057283401489e-01 2.9326424002647400e-01</leafValues></_>
        <_>
          <internalNodes>
            0 -1 50 1.1960972100496292e-02</internalNodes>
          <leafValues>
            -4.1198301315307617e-01 7.3091089725494385e-01</leafValues></_>
        <_>
          <internalNodes>
            0 -1 27 2.2329399362206459e-02</internalNodes>
          <leafValues>
            -4.0935099124908447e-01 6.4030712842941284e-01</leafValues></_></weakClassifiers></_></stages>
  <features>
    <_>
      <rects>
        <_>
          0 3 8 38 -1.</_>
        <_>
          4 3 4 38 2.</_></rects>
      <tilted>0</tilted></_>
    <_>
      <rects>
        <_>
          0 3 82 18 -1.</_>
        <_>
          0 9 82 6 3.</_></rects>
      <tilted>0</tilted></_>
    <_>
      <rects>
        <_>
          0 24 15 23 -1.</_>
        <_>
          5 24 5 23 3.</_></rects>
      <tilted>0</tilted></_>
    <_>
      <rects>
        <_>
          0 28 15 11 -1.</_>
        <_>
          5 28 5 11 3.</_></rects>
      <tilted>0</tilted></_>
    <_>
      <rects>
        <_>
          0 36 8 18 -1.</_>
        <_>
          0 36 4 9 2.</_>
        <_>
          4 45 4 9 2.</_></rects>
      <tilted>0</tilted></_>
    <_>
      <rects>
        <_>
          1 0 81 4 -1.</_>
        <_>
          1 2 81 2 2.</_></rects>
      <tilted>0</tilted></_>
    <_>
      <rects>
        <_>
          1 19 21 23 -1.</_>
        <_>
          8 19 7 23 3.</_></rects>
      <tilted>0</tilted></_>
    <_>
      <rects>
        <_>
          3 31 18 24 -1.</_>
        <_>
          3 31 9 12 2.</_>
        <_>
          12 43 9 12 2.</_></rects>
      <tilted>0</tilted></_>
    <_>
      <rects>
        <_>
          3 47 66 4 -1.</_>
        <_>
          3 49 66 2 2.</_></rects>
      <tilted>0</tilted></_>
    <_>
      <rects>
        <_>
          4 14 15 32 -1.</_>
        <_>
          9 14 5 32 3.</_></rects>
      <tilted>0</tilted></_>
    <_>
      <rects>
        <_>
          5 35 57 4 -1.</_>
        <_>
          24 35 19 4 3.</_></rects>
      <tilted>0</tilted></_>
    <_>
      <rects>
        <_>
          6 22 15 20 -1.</_>
        <_>
          11 22 5 20 3.</_></rects>
      <tilted>0</tilted></_>
    <_>
      <rects>
        <_>
          6 24 8 3 -1.</_>
        <_>
          10 24 4 3 2.</_></rects>
      <tilted>0</tilted></_>
    <_>
      <rects>
        <_>
          6 38 67 22 -1.</_>
        <_>
          6 49 67 11 2.</_></rects>
      <tilted>0</tilted></_>
    <_>
      <rects>
        <_>
          8 0 2 60 -1.</_>
        <_>
          8 20 2 20 3.</_></rects>
      <tilted>0</tilted></_>
    <_>
      <rects>
        <_>
          8 28 2 32 -1.</_>
        <_>
          8 44 2 16 2.</_></rects>
      <tilted>0</tilted></_>
    <_>
      <rects>
        <_>
          8 42 39 6 -1.</_>
        <_>
          8 45 39 3 2.</_></rects>
      <tilted>0</tilted></_>
    <_>
      <rects>
        <_>
          8 43 50 4 -1.</_>
        <_>
          8 45 50 2 2.</_></rects>
      <tilted>0</tilted></_>
    <_>
      <rects>
        <_>
          9 32 3 6 -1.</_>
        <_>
          10 32 1 6 3.</_></rects>
      <tilted>0</tilted></_>
    <_>
      <rects>
        <_>
          13 29 2 13 -1.</_>
        <_>
          14 29 1 13 2.</_></rects>
      <tilted>0</tilted></_>
    <_>
      <rects>
        <_>
          13 42 62 9 -1.</_>
        <_>
          13 45 62 3 3.</_></rects>
      <tilted>0</tilted></_>
    <_>
      <rects>
        <_>
          14 35 34 16 -1.</_>
        <_>
          14 43 34 8 2.</_></rects>
      <tilted>0</tilted></_>
    <_>
      <rects>
        <_>
          15 28 3 9 -1.</_>
        <_>
          16 28 1 9 3.</_></rects>
      <tilted>0</tilted></_>
    <_>
      <rects>
        <_>
          16 42 50 4 -1.</_>
        <_>
          16 44 50 2 2.</_></rects>
      <tilted>0</tilted></_>
    <_>
      <rects>
        <_>
          17 10 16 18 -1.</_>
        <_>
          17 19 16 9 2.</_></rects>
      <tilted>0</tilted></_>
    <_>
      <rects>
        <_>
          17 39 45 9 -1.</_>
        <_>
          17 42 45 3 3.</_></rects>
      <tilted>0</tilted></_>
    <_>
      <rects>
        <_>
          19 21 27 3 -1.</_>
        <_>
          19 22 27 1 3.</_></rects>
      <tilted>0</tilted></_>
    <_>
      <rects>
        <_>
          19 33 24 21 -1.</_>
        <_>
          19 40 24 7 3.</_></rects>
      <tilted>0</tilted></_>
    <_>
      <rects>
        <_>
          20 33 45 15 -1.</_>
        <_>
          20 38 45 5 3.</_></rects>
      <tilted>0</tilted></_>
    <_>
      <rects>
        <_>
          21 18 48 3 -1.</_>
        <_>
          21 19 48 1 3.</_></rects>
      <tilted>0</tilted></_>
    <_>
      <rects>
        <_>
          22 20 24 17 -1.</_>
        <_>
          30 20 8 17 3.</_></rects>
      <tilted>0</tilted></_>
    <_>
      <rects>
        <_>
          28 18 8 30 -1.</_>
        <_>
          28 18 4 15 2.</_>
        <_>
          32 33 4 15 2.</_></rects>
      <tilted>0</tilted></_>
    <_>
      <rects>
        <_>
          28 33 6 1 -1.</_>
        <_>
          31 33 3 1 2.</_></rects>
      <tilted>0</tilted></_>
    <_>
      <rects>
        <_>
          30 17 26 33 -1.</_>
        <_>
          43 17 13 33 2.</_></rects>
      <tilted>0</tilted></_>
    <_>
      <rects>
        <_>
          30 23 30 17 -1.</_>
        <_>
          40 23 10 17 3.</_></rects>
      <tilted>0</tilted></_>
    <_>
      <rects>
        <_>
          31 17 31 3 -1.</_>
        <_>
          31 18 31 1 3.</_></rects>
      <tilted>0</tilted></_>
    <_>
      <rects>
        <_>
          31 25 14 11 -1.</_>
        <_>
          38 25 7 11 2.</_></rects>
      <tilted>0</tilted></_>
    <_>
      <rects>
        <_>
          31 36 34 18 -1.</_>
        <_>
          31 42 34 6 3.</_></rects>
      <tilted>0</tilted></_>
    <_>
      <rects>
        <_>
          33 4 24 45 -1.</_>
        <_>
          45 4 12 45 2.</_></rects>
      <tilted>0</tilted></_>
    <_>
      <rects>
        <_>
          33 17 13 3 -1.</_>
        <_>
          33 18 13 1 3.</_></rects>
      <tilted>0</tilted></_>
    <_>
      <rects>
        <_>
          34 22 12 18 -1.</_>
        <_>
          34 28 12 6 3.</_></rects>
      <tilted>0</tilted></_>
    <_>
      <rects>
        <_>
          35 40 40 18 -1.</_>
        <_>
          35 49 40 9 2.</_></rects>
      <tilted>0</tilted></_>
    <_>
      <rects>
        <_>
          40 28 26 18 -1.</_>
        <_>
          40 28 13 9 2.</_>
        <_>
          53 37 13 9 2.</_></rects>
      <tilted>0</tilted></_>
    <_>
      <rects>
        <_>
          41 0 43 4 -1.</_>
        <_>
          41 2 43 2 2.</_></rects>
      <tilted>0</tilted></_>
    <_>
      <rects>
        <_>
          42 28 30 19 -1.</_>
        <_>
          52 28 10 19 3.</_></rects>
      <tilted>0</tilted></_>
    <_>
      <rects>
        <_>
          43 37 18 12 -1.</_>
        <_>
          52 37 9 12 2.</_></rects>
      <tilted>0</tilted></_>
    <_>
      <rects>
        <_>
          44 23 1 18 -1.</_>
        <_>
          44 29 1 6 3.</_></rects>
      <tilted>0</tilted></_>
    <_>
      <rects>
        <_>
          50 39 22 20 -1.</_>
        <_>
          50 49 22 10 2.</_></rects>
      <tilted>0</tilted></_>
    <_>
      <rects>
        <_>
          51 32 31 6 -1.</_>
        <_>
          51 35 31 3 2.</_></rects>
      <tilted>0</tilted></_>
    <_>
      <rects>
        <_>
          54 12 15 6 -1.</_>
        <_>
          59 12 5 6 3.</_></rects>
      <tilted>0</tilted></_>
    <_>
      <rects>
        <_>
          56 29 34 18 -1.</_>
        <_>
          56 29 17 9 2.</_>
        <_>
          73 38 17 9 2.</_></rects>
      <tilted>0</tilted></_>
    <_>
      <rects>
        <_>
          57 4 12 14 -1.</_>
        <_>
          61 4 4 14 3.</_></rects>
      <tilted>0</tilted></_>
    <_>
      <rects>
        <_>
          57 11 1 42 -1.</_>
        <_>
          57 25 1 14 3.</_></rects>
      <tilted>0</tilted></_>
    <_>
      <rects>
        <_>
          59 18 5 20 -1.</_>
        <_>
          59 28 5 10 2.</_></rects>
      <tilted>0</tilted></_>
    <_>
      <rects>
        <_>
          59 25 18 16 -1.</_>
        <_>
          68 25 9 16 2.</_></rects>
      <tilted>0</tilted></_>
    <_>
      <rects>
        <_>
          65 26 21 8 -1.</_>
        <_>
          72 26 7 8 3.</_></rects>
      <tilted>0</tilted></_>
    <_>
      <rects>
        <_>
          73 33 5 6 -1.</_>
        <_>
          73 36 5 3 2.</_></rects>
      <tilted>0</tilted></_>
    <_>
      <rects>
        <_>
          74 18 16 19 -1.</_>
        <_>
          82 18 8 19 2.</_></rects>
      <tilted>0</tilted></_>
    <_>
      <rects>
        <_>
          75 6 8 17 -1.</_>
        <_>
          79 6 4 17 2.</_></rects>
      <tilted>0</tilted></_>
    <_>
      <rects>
        <_>
          86 10 2 18 -1.</_>
        <_>
          86 16 2 6 3.</_></rects>
      <tilted>0</tilted></_>
    <_>
      <rects>
        <_>
          89 1 1 42 -1.</_>
        <_>
          89 22 1 21 2.</_></rects>
      <tilted>0</tilted></_></features></cascade>
</opencv_storage>
