<?xml version="1.0"?>
<opencv_storage>
<stage11>
  <maxWeakCount>6</maxWeakCount>
  <stageThreshold>-2.3748395442962646e+00</stageThreshold>
  <weakClassifiers>
    <_>
      <internalNodes>
        0 -1 321552 -2.7460349723696709e-02</internalNodes>
      <leafValues>
        6.6666670143604279e-02 -9.4705879688262939e-01</leafValues></_>
    <_>
      <internalNodes>
        0 -1 12209957 4.7947484999895096e-03</internalNodes>
      <leafValues>
        -7.5522929430007935e-01 5.7794851064682007e-01</leafValues></_>
    <_>
      <internalNodes>
        0 -1 5452982 -5.8526091743260622e-04</internalNodes>
      <leafValues>
        3.7751924991607666e-01 -5.9343433380126953e-01</leafValues></_>
    <_>
      <internalNodes>
        0 -1 13687337 -9.5357338432222605e-04</internalNodes>
      <leafValues>
        3.8217064738273621e-01 -6.1936020851135254e-01</leafValues></_>
    <_>
      <internalNodes>
        0 -1 11857177 -5.2679539658129215e-04</internalNodes>
      <leafValues>
        -9.2300218343734741e-01 2.5421422719955444e-01</leafValues></_>
    <_>
      <internalNodes>
        0 -1 7495693 -1.4286765363067389e-03</internalNodes>
      <leafValues>
        -8.1337499618530273e-01 2.8602889180183411e-01</leafValues></_></weakClassifiers></stage11>
</opencv_storage>
