<?xml version="1.0"?>
<opencv_storage>
<stage10>
  <maxWeakCount>5</maxWeakCount>
  <stageThreshold>-1.5236997604370117e+00</stageThreshold>
  <weakClassifiers>
    <_>
      <internalNodes>
        0 -1 92361 1.5716367959976196e-01</internalNodes>
      <leafValues>
        -8.9163500070571899e-01 4.4444444775581360e-01</leafValues></_>
    <_>
      <internalNodes>
        0 -1 74498 -3.1166736036539078e-02</internalNodes>
      <leafValues>
        1.3714188337326050e-01 -6.9974255561828613e-01</leafValues></_>
    <_>
      <internalNodes>
        0 -1 337377 -1.3519428670406342e-02</internalNodes>
      <leafValues>
        6.0667502880096436e-01 -3.9872273802757263e-01</leafValues></_>
    <_>
      <internalNodes>
        0 -1 36732 -9.3281175941228867e-03</internalNodes>
      <leafValues>
        3.7430021166801453e-01 -5.6811022758483887e-01</leafValues></_>
    <_>
      <internalNodes>
        0 -1 82143 -3.6376208066940308e-02</internalNodes>
      <leafValues>
        -9.1329753398895264e-01 2.4622638523578644e-01</leafValues></_></weakClassifiers></stage10>
</opencv_storage>
