<?xml version="1.0"?>
<opencv_storage>
<stage14>
  <maxWeakCount>6</maxWeakCount>
  <stageThreshold>-1.5731022357940674e+00</stageThreshold>
  <weakClassifiers>
    <_>
      <internalNodes>
        0 -1 68172 -2.9964936897158623e-02</internalNodes>
      <leafValues>
        6.6666668653488159e-01 -8.8657844066619873e-01</leafValues></_>
    <_>
      <internalNodes>
        0 -1 70064 8.3348080515861511e-03</internalNodes>
      <leafValues>
        -6.1985898017883301e-01 3.1910443305969238e-01</leafValues></_>
    <_>
      <internalNodes>
        0 -1 179239 3.2926462590694427e-03</internalNodes>
      <leafValues>
        1.4127270877361298e-01 -9.4002127647399902e-01</leafValues></_>
    <_>
      <internalNodes>
        0 -1 321390 2.4184849462471902e-04</internalNodes>
      <leafValues>
        -8.3353585004806519e-01 1.5944802761077881e-01</leafValues></_>
    <_>
      <internalNodes>
        0 -1 334835 -3.1726536690257490e-05</internalNodes>
      <leafValues>
        3.9621159434318542e-01 -5.1541918516159058e-01</leafValues></_>
    <_>
      <internalNodes>
        0 -1 143145 1.9100357894785702e-04</internalNodes>
      <leafValues>
        2.2938668727874756e-01 -9.0884000062942505e-01</leafValues></_></weakClassifiers></stage14>
</opencv_storage>
