<?xml version="1.0"?>
<opencv_storage>
<stage11>
  <maxWeakCount>5</maxWeakCount>
  <stageThreshold>-1.8940963745117188e+00</stageThreshold>
  <weakClassifiers>
    <_>
      <internalNodes>
        0 -1 28749 7.7429458498954773e-02</internalNodes>
      <leafValues>
        -8.8815164566040039e-01 4.6666666865348816e-01</leafValues></_>
    <_>
      <internalNodes>
        0 -1 156909 2.0110278856009245e-03</internalNodes>
      <leafValues>
        -7.6150780916213989e-01 9.6125014126300812e-02</leafValues></_>
    <_>
      <internalNodes>
        0 -1 79220 3.7590265274047852e-03</internalNodes>
      <leafValues>
        -5.3404015302658081e-01 3.8143834471702576e-01</leafValues></_>
    <_>
      <internalNodes>
        0 -1 364007 -1.0851881233975291e-04</internalNodes>
      <leafValues>
        -7.8241819143295288e-01 2.5295835733413696e-01</leafValues></_>
    <_>
      <internalNodes>
        0 -1 323614 2.4522005696780980e-04</internalNodes>
      <leafValues>
        2.1438857913017273e-01 -9.4062805175781250e-01</leafValues></_></weakClassifiers></stage11>
</opencv_storage>
