<?xml version="1.0"?>
<opencv_storage>
<stage1>
  <maxWeakCount>9</maxWeakCount>
  <stageThreshold>-2.2470085620880127e+00</stageThreshold>
  <weakClassifiers>
    <_>
      <internalNodes>
        0 -1 59165 1.9948645494878292e-03</internalNodes>
      <leafValues>
        2.4221453070640564e-01 -7.2625696659088135e-01</leafValues></_>
    <_>
      <internalNodes>
        0 -1 49654 1.5886753797531128e-02</internalNodes>
      <leafValues>
        -6.7443954944610596e-01 2.3617389798164368e-01</leafValues></_>
    <_>
      <internalNodes>
        0 -1 36962 5.0061056390404701e-03</internalNodes>
      <leafValues>
        3.2413694262504578e-01 -6.0045355558395386e-01</leafValues></_>
    <_>
      <internalNodes>
        0 -1 73602 6.8689221516251564e-03</internalNodes>
      <leafValues>
        -9.0604823827743530e-01 1.9576996564865112e-01</leafValues></_>
    <_>
      <internalNodes>
        0 -1 60047 1.3011715374886990e-02</internalNodes>
      <leafValues>
        3.1512808799743652e-01 -7.0228594541549683e-01</leafValues></_>
    <_>
      <internalNodes>
        0 -1 37418 2.1190358325839043e-02</internalNodes>
      <leafValues>
        -4.6684384346008301e-01 3.5199126601219177e-01</leafValues></_>
    <_>
      <internalNodes>
        0 -1 69770 6.5382800996303558e-02</internalNodes>
      <leafValues>
        -2.0728848874568939e-01 7.9830384254455566e-01</leafValues></_>
    <_>
      <internalNodes>
        0 -1 37918 1.5938978176563978e-03</internalNodes>
      <leafValues>
        7.0916366577148438e-01 -2.0757958292961121e-01</leafValues></_>
    <_>
      <internalNodes>
        0 -1 73323 7.5072464533150196e-03</internalNodes>
      <leafValues>
        -8.4578430652618408e-01 2.1777902543544769e-01</leafValues></_></weakClassifiers></stage1>
</opencv_storage>
