<?xml version="1.0"?>
<opencv_storage>
<stage3>
  <maxWeakCount>11</maxWeakCount>
  <stageThreshold>-2.1975939273834229e+00</stageThreshold>
  <weakClassifiers>
    <_>
      <internalNodes>
        0 -1 58824 9.5304958522319794e-02</internalNodes>
      <leafValues>
        -6.7183536291122437e-01 7.2332018613815308e-01</leafValues></_>
    <_>
      <internalNodes>
        0 -1 59901 6.7450627684593201e-03</internalNodes>
      <leafValues>
        3.7236911058425903e-01 -6.2191307544708252e-01</leafValues></_>
    <_>
      <internalNodes>
        0 -1 58121 2.1525602787733078e-02</internalNodes>
      <leafValues>
        -3.9082577824592590e-01 4.3342682719230652e-01</leafValues></_>
    <_>
      <internalNodes>
        0 -1 53587 1.6303334385156631e-02</internalNodes>
      <leafValues>
        2.7943354845046997e-01 -5.9396713972091675e-01</leafValues></_>
    <_>
      <internalNodes>
        0 -1 49062 1.0255412198603153e-02</internalNodes>
      <leafValues>
        -9.0921729803085327e-01 1.9448053836822510e-01</leafValues></_>
    <_>
      <internalNodes>
        0 -1 8450 5.0439648330211639e-03</internalNodes>
      <leafValues>
        2.4513642489910126e-01 -5.4546356201171875e-01</leafValues></_>
    <_>
      <internalNodes>
        0 -1 74005 4.1196726262569427e-02</internalNodes>
      <leafValues>
        -2.2817933559417725e-01 7.0844393968582153e-01</leafValues></_>
    <_>
      <internalNodes>
        0 -1 37178 6.5048942342400551e-03</internalNodes>
      <leafValues>
        3.4147980809211731e-01 -4.9682253599166870e-01</leafValues></_>
    <_>
      <internalNodes>
        0 -1 23885 6.7937057465314865e-03</internalNodes>
      <leafValues>
        -7.7258986234664917e-01 2.1291121840476990e-01</leafValues></_>
    <_>
      <internalNodes>
        0 -1 34342 1.3308869674801826e-02</internalNodes>
      <leafValues>
        1.7008511722087860e-01 -7.4313330650329590e-01</leafValues></_>
    <_>
      <internalNodes>
        0 -1 68441 6.6837184131145477e-02</internalNodes>
      <leafValues>
        -2.2034624218940735e-01 8.2424229383468628e-01</leafValues></_></weakClassifiers></stage3>
</opencv_storage>
