<?xml version="1.0"?>
<opencv_storage>
<stage0>
  <maxWeakCount>5</maxWeakCount>
  <stageThreshold>-1.8686017990112305e+00</stageThreshold>
  <weakClassifiers>
    <_>
      <internalNodes>
        0 -1 34559 1.9602249376475811e-03</internalNodes>
      <leafValues>
        3.5792350769042969e-01 -8.0247718095779419e-01</leafValues></_>
    <_>
      <internalNodes>
        0 -1 36053 6.6526415757834911e-03</internalNodes>
      <leafValues>
        3.5447522997856140e-01 -7.8496521711349487e-01</leafValues></_>
    <_>
      <internalNodes>
        0 -1 66599 1.3339005410671234e-02</internalNodes>
      <leafValues>
        2.6539078354835510e-01 -8.2802748680114746e-01</leafValues></_>
    <_>
      <internalNodes>
        0 -1 49030 6.5727941691875458e-03</internalNodes>
      <leafValues>
        -8.1652474403381348e-01 2.3413185775279999e-01</leafValues></_>
    <_>
      <internalNodes>
        0 -1 37574 5.9873433783650398e-03</internalNodes>
      <leafValues>
        3.1273627281188965e-01 -5.8394515514373779e-01</leafValues></_></weakClassifiers></stage0>
</opencv_storage>
