<?xml version="1.0"?>
<opencv_storage>
<stage9>
  <maxWeakCount>6</maxWeakCount>
  <stageThreshold>-2.1411459445953369e+00</stageThreshold>
  <weakClassifiers>
    <_>
      <internalNodes>
        0 -1 13975609 2.4215085431933403e-03</internalNodes>
      <leafValues>
        -9.2585462331771851e-01 1.</leafValues></_>
    <_>
      <internalNodes>
        0 -1 13340749 1.9548740237951279e-02</internalNodes>
      <leafValues>
        -7.3395806550979614e-01 3.7389490008354187e-01</leafValues></_>
    <_>
      <internalNodes>
        0 -1 13741287 -2.0706392824649811e-03</internalNodes>
      <leafValues>
        5.7698762416839600e-01 -4.7327166795730591e-01</leafValues></_>
    <_>
      <internalNodes>
        0 -1 7479932 -4.7884415835142136e-05</internalNodes>
      <leafValues>
        2.9165682196617126e-01 -7.6997017860412598e-01</leafValues></_>
    <_>
      <internalNodes>
        0 -1 14072269 -7.4524359661154449e-05</internalNodes>
      <leafValues>
        3.7420246005058289e-01 -5.4813265800476074e-01</leafValues></_>
    <_>
      <internalNodes>
        0 -1 8505399 -5.5130418331827968e-05</internalNodes>
      <leafValues>
        -9.4417899847030640e-01 2.4841427803039551e-01</leafValues></_></weakClassifiers></stage9>
</opencv_storage>
