<?xml version="1.0"?>
<opencv_storage>
<stage5>
  <maxWeakCount>5</maxWeakCount>
  <stageThreshold>-1.5267854928970337e+00</stageThreshold>
  <weakClassifiers>
    <_>
      <internalNodes>
        0 -1 16662 3.7463605403900146e-02</internalNodes>
      <leafValues>
        -8.9840638637542725e-01 -1.0588235408067703e-01</leafValues></_>
    <_>
      <internalNodes>
        0 -1 18051 1.3842327520251274e-02</internalNodes>
      <leafValues>
        -8.5579288005828857e-01 -5.3254127502441406e-02</leafValues></_>
    <_>
      <internalNodes>
        0 -1 174092 2.6596065144985914e-03</internalNodes>
      <leafValues>
        1.2844868004322052e-01 -9.5519900321960449e-01</leafValues></_>
    <_>
      <internalNodes>
        0 -1 28001 1.1758714914321899e-02</internalNodes>
      <leafValues>
        -8.6833918094635010e-01 2.3104867339134216e-01</leafValues></_>
    <_>
      <internalNodes>
        0 -1 31947 5.3847656818106771e-04</internalNodes>
      <leafValues>
        1.6476546227931976e-01 -9.3707424402236938e-01</leafValues></_></weakClassifiers></stage5>
</opencv_storage>
