<?xml version="1.0"?>
<opencv_storage>
<stage8>
  <maxWeakCount>6</maxWeakCount>
  <stageThreshold>-2.2045145034790039e+00</stageThreshold>
  <weakClassifiers>
    <_>
      <internalNodes>
        0 -1 13994836 -4.0333843789994717e-03</internalNodes>
      <leafValues>
        7.1428573131561279e-01 -9.2578315734863281e-01</leafValues></_>
    <_>
      <internalNodes>
        0 -1 10076018 2.1645929664373398e-02</internalNodes>
      <leafValues>
        -7.7050763368606567e-01 1.9214245676994324e-01</leafValues></_>
    <_>
      <internalNodes>
        0 -1 11838799 -5.0389574607834220e-04</internalNodes>
      <leafValues>
        4.2104169726371765e-01 -4.9159243702888489e-01</leafValues></_>
    <_>
      <internalNodes>
        0 -1 8419330 6.5286949393339455e-06</internalNodes>
      <leafValues>
        1.9496776163578033e-01 -9.5379322767257690e-01</leafValues></_>
    <_>
      <internalNodes>
        0 -1 8560271 4.3695737258531153e-04</internalNodes>
      <leafValues>
        -4.4988837838172913e-01 4.3670609593391418e-01</leafValues></_>
    <_>
      <internalNodes>
        0 -1 5092113 -1.3789848890155554e-04</internalNodes>
      <leafValues>
        -9.0646725893020630e-01 2.3828935623168945e-01</leafValues></_></weakClassifiers></stage8>
</opencv_storage>
