<?xml version="1.0"?>
<opencv_storage>
<cascade>
  <stageType>BOOST</stageType>
  <featureType>HAAR</featureType>
  <height>24</height>
  <width>36</width>
  <stageParams>
    <boostType>GAB</boostType>
    <minHitRate>9.9500000476837158e-01</minHitRate>
    <maxFalseAlarm>5.0000000000000000e-01</maxFalseAlarm>
    <weightTrimRate>9.4999998807907104e-01</weightTrimRate>
    <maxDepth>1</maxDepth>
    <maxWeakCount>100</maxWeakCount></stageParams>
  <featureParams>
    <maxCatCount>0</maxCatCount>
    <featSize>1</featSize>
    <mode>BASIC</mode></featureParams>
  <stageNum>18</stageNum>
  <stages>
    <!-- stage 0 -->
    <_>
      <maxWeakCount>4</maxWeakCount>
      <stageThreshold>-1.0854457616806030e+00</stageThreshold>
      <weakClassifiers>
        <_>
          <internalNodes>
            0 -1 29 -3.2836482860147953e-03</internalNodes>
          <leafValues>
            3.2352942228317261e-01 -9.0388548374176025e-01</leafValues></_>
        <_>
          <internalNodes>
            0 -1 91 -1.7239142209291458e-02</internalNodes>
          <leafValues>
            4.5012649893760681e-01 -8.1611663103103638e-01</leafValues></_>
        <_>
          <internalNodes>
            0 -1 22 -1.0215113870799541e-03</internalNodes>
          <leafValues>
            2.7743855118751526e-01 -9.0501803159713745e-01</leafValues></_>
        <_>
          <internalNodes>
            0 -1 62 1.3869121903553605e-03</internalNodes>
          <leafValues>
            -8.7029701471328735e-01 3.6576199531555176e-01</leafValues></_></weakClassifiers></_>
    <!-- stage 1 -->
    <_>
      <maxWeakCount>3</maxWeakCount>
      <stageThreshold>-1.3037827014923096e+00</stageThreshold>
      <weakClassifiers>
        <_>
          <internalNodes>
            0 -1 87 -5.2455876022577286e-02</internalNodes>
          <leafValues>
            1.5596330165863037e-01 -8.8381743431091309e-01</leafValues></_>
        <_>
          <internalNodes>
            0 -1 23 -6.5677210688591003e-02</internalNodes>
          <leafValues>
            5.4469215869903564e-01 -6.5029555559158325e-01</leafValues></_>
        <_>
          <internalNodes>
            0 -1 33 2.0290112122893333e-02</internalNodes>
          <leafValues>
            2.8985986113548279e-01 -9.6465736627578735e-01</leafValues></_></weakClassifiers></_>
    <!-- stage 2 -->
    <_>
      <maxWeakCount>5</maxWeakCount>
      <stageThreshold>-1.4317442178726196e+00</stageThreshold>
      <weakClassifiers>
        <_>
          <internalNodes>
            0 -1 44 5.0647772848606110e-02</internalNodes>
          <leafValues>
            -8.1903862953186035e-01 4.2148759961128235e-01</leafValues></_>
        <_>
          <internalNodes>
            0 -1 89 -1.6448885202407837e-02</internalNodes>
          <leafValues>
            3.1519490480422974e-01 -7.7551054954528809e-01</leafValues></_>
        <_>
          <internalNodes>
            0 -1 14 -2.7436461299657822e-02</internalNodes>
          <leafValues>
            5.3760409355163574e-01 -5.3838199377059937e-01</leafValues></_>
        <_>
          <internalNodes>
            0 -1 10 -3.7650831043720245e-02</internalNodes>
          <leafValues>
            5.0652080774307251e-01 -5.7812041044235229e-01</leafValues></_>
        <_>
          <internalNodes>
            0 -1 63 1.8066577613353729e-03</internalNodes>
          <leafValues>
            -8.8738423585891724e-01 2.8669491410255432e-01</leafValues></_></weakClassifiers></_>
    <!-- stage 3 -->
    <_>
      <maxWeakCount>5</maxWeakCount>
      <stageThreshold>-1.4522825479507446e+00</stageThreshold>
      <weakClassifiers>
        <_>
          <internalNodes>
            0 -1 48 8.8457211852073669e-02</internalNodes>
          <leafValues>
            -8.0201649665832520e-01 6.2637364864349365e-01</leafValues></_>
        <_>
          <internalNodes>
            0 -1 93 1.3354981318116188e-02</internalNodes>
          <leafValues>
            -7.1954137086868286e-01 3.7544775009155273e-01</leafValues></_>
        <_>
          <internalNodes>
            0 -1 56 -1.2172695249319077e-02</internalNodes>
          <leafValues>
            -9.6670526266098022e-01 2.2882647812366486e-01</leafValues></_>
        <_>
          <internalNodes>
            0 -1 45 8.4936805069446564e-03</internalNodes>
          <leafValues>
            -4.4877186417579651e-01 6.9229280948638916e-01</leafValues></_>
        <_>
          <internalNodes>
            0 -1 55 9.5354288350790739e-04</internalNodes>
          <leafValues>
            2.8922078013420105e-01 -9.7242277860641479e-01</leafValues></_></weakClassifiers></_>
    <!-- stage 4 -->
    <_>
      <maxWeakCount>6</maxWeakCount>
      <stageThreshold>-1.7777974605560303e+00</stageThreshold>
      <weakClassifiers>
        <_>
          <internalNodes>
            0 -1 111 -2.3298747837543488e-02</internalNodes>
          <leafValues>
            3.9823007583618164e-01 -8.0729651451110840e-01</leafValues></_>
        <_>
          <internalNodes>
            0 -1 5 1.9038040190935135e-02</internalNodes>
          <leafValues>
            -7.8043913841247559e-01 2.7852851152420044e-01</leafValues></_>
        <_>
          <internalNodes>
            0 -1 4 1.8996121361851692e-02</internalNodes>
          <leafValues>
            -6.3299500942230225e-01 4.4786536693572998e-01</leafValues></_>
        <_>
          <internalNodes>
            0 -1 94 -4.7094829380512238e-02</internalNodes>
          <leafValues>
            6.1172449588775635e-01 -4.5294636487960815e-01</leafValues></_>
        <_>
          <internalNodes>
            0 -1 75 -1.4842241071164608e-03</internalNodes>
          <leafValues>
            3.6808681488037109e-01 -7.9485070705413818e-01</leafValues></_>
        <_>
          <internalNodes>
            0 -1 74 -3.4230437129735947e-02</internalNodes>
          <leafValues>
            5.4015523195266724e-01 -4.5480093359947205e-01</leafValues></_></weakClassifiers></_>
    <!-- stage 5 -->
    <_>
      <maxWeakCount>5</maxWeakCount>
      <stageThreshold>-1.1965402364730835e+00</stageThreshold>
      <weakClassifiers>
        <_>
          <internalNodes>
            0 -1 18 1.3256394863128662e-01</internalNodes>
          <leafValues>
            -7.9082566499710083e-01 4.7826087474822998e-01</leafValues></_>
        <_>
          <internalNodes>
            0 -1 49 -1.0929006384685636e-03</internalNodes>
          <leafValues>
            -9.0697449445724487e-01 1.3996362686157227e-01</leafValues></_>
        <_>
          <internalNodes>
            0 -1 88 -4.4574849307537079e-03</internalNodes>
          <leafValues>
            -9.0846431255340576e-01 1.5834522247314453e-01</leafValues></_>
        <_>
          <internalNodes>
            0 -1 32 -2.2954470477998257e-03</internalNodes>
          <leafValues>
            -8.4161782264709473e-01 2.3638819158077240e-01</leafValues></_>
        <_>
          <internalNodes>
            0 -1 30 5.0635715015232563e-03</internalNodes>
          <leafValues>
            2.1810208261013031e-01 -9.4041162729263306e-01</leafValues></_></weakClassifiers></_>
    <!-- stage 6 -->
    <_>
      <maxWeakCount>8</maxWeakCount>
      <stageThreshold>-1.7105766534805298e+00</stageThreshold>
      <weakClassifiers>
        <_>
          <internalNodes>
            0 -1 103 2.6695203036069870e-02</internalNodes>
          <leafValues>
            -7.8908419609069824e-01 3.4653463959693909e-01</leafValues></_>
        <_>
          <internalNodes>
            0 -1 0 -2.9298381879925728e-02</internalNodes>
          <leafValues>
            3.8963085412979126e-01 -6.1989194154739380e-01</leafValues></_>
        <_>
          <internalNodes>
            0 -1 40 -7.3832176625728607e-02</internalNodes>
          <leafValues>
            4.7684568166732788e-01 -5.0031048059463501e-01</leafValues></_>
        <_>
          <internalNodes>
            0 -1 59 1.6677168605383486e-04</internalNodes>
          <leafValues>
            2.7153474092483521e-01 -8.2225865125656128e-01</leafValues></_>
        <_>
          <internalNodes>
            0 -1 59 -2.4330933229066432e-04</internalNodes>
          <leafValues>
            -8.4035921096801758e-01 2.9030108451843262e-01</leafValues></_>
        <_>
          <internalNodes>
            0 -1 2 2.9699031729251146e-03</internalNodes>
          <leafValues>
            -3.8406354188919067e-01 5.9463679790496826e-01</leafValues></_>
        <_>
          <internalNodes>
            0 -1 101 8.7619759142398834e-03</internalNodes>
          <leafValues>
            -3.7870576977729797e-01 5.5698251724243164e-01</leafValues></_>
        <_>
          <internalNodes>
            0 -1 6 4.9979314208030701e-03</internalNodes>
          <leafValues>
            -3.9819237589836121e-01 5.5314773321151733e-01</leafValues></_></weakClassifiers></_>
    <!-- stage 7 -->
    <_>
      <maxWeakCount>5</maxWeakCount>
      <stageThreshold>-1.9112421274185181e+00</stageThreshold>
      <weakClassifiers>
        <_>
          <internalNodes>
            0 -1 110 -5.2473761141300201e-02</internalNodes>
          <leafValues>
            2.7835050225257874e-01 -7.7880185842514038e-01</leafValues></_>
        <_>
          <internalNodes>
            0 -1 11 -9.4550456851720810e-03</internalNodes>
          <leafValues>
            1.6752494871616364e-01 -7.2224819660186768e-01</leafValues></_>
        <_>
          <internalNodes>
            0 -1 25 -1.3360171578824520e-03</internalNodes>
          <leafValues>
            2.2166268527507782e-01 -8.5932660102844238e-01</leafValues></_>
        <_>
          <internalNodes>
            0 -1 51 -3.8566598668694496e-03</internalNodes>
          <leafValues>
            -9.3000179529190063e-01 2.5998571515083313e-01</leafValues></_>
        <_>
          <internalNodes>
            0 -1 72 -4.0027853101491928e-03</internalNodes>
          <leafValues>
            -8.9184051752090454e-01 1.6612434387207031e-01</leafValues></_></weakClassifiers></_>
    <!-- stage 8 -->
    <_>
      <maxWeakCount>6</maxWeakCount>
      <stageThreshold>-1.3714946508407593e+00</stageThreshold>
      <weakClassifiers>
        <_>
          <internalNodes>
            0 -1 52 -8.4751576185226440e-02</internalNodes>
          <leafValues>
            5.2238804101943970e-01 -7.6502239704132080e-01</leafValues></_>
        <_>
          <internalNodes>
            0 -1 38 2.3323886096477509e-02</internalNodes>
          <leafValues>
            -4.8802399635314941e-01 4.6992182731628418e-01</leafValues></_>
        <_>
          <internalNodes>
            0 -1 69 9.9236145615577698e-03</internalNodes>
          <leafValues>
            1.9646966457366943e-01 -8.8732916116714478e-01</leafValues></_>
        <_>
          <internalNodes>
            0 -1 8 -1.6918489709496498e-03</internalNodes>
          <leafValues>
            -8.3398634195327759e-01 1.7732295393943787e-01</leafValues></_>
        <_>
          <internalNodes>
            0 -1 54 1.3354540897125844e-05</internalNodes>
          <leafValues>
            -6.5904057025909424e-01 2.5732100009918213e-01</leafValues></_>
        <_>
          <internalNodes>
            0 -1 83 -9.5804985612630844e-03</internalNodes>
          <leafValues>
            3.3423700928688049e-01 -6.3783097267150879e-01</leafValues></_></weakClassifiers></_>
    <!-- stage 9 -->
    <_>
      <maxWeakCount>6</maxWeakCount>
      <stageThreshold>-1.5135593414306641e+00</stageThreshold>
      <weakClassifiers>
        <_>
          <internalNodes>
            0 -1 24 -9.3221336603164673e-02</internalNodes>
          <leafValues>
            5.7894736528396606e-01 -7.5644445419311523e-01</leafValues></_>
        <_>
          <internalNodes>
            0 -1 39 2.5629639625549316e-02</internalNodes>
          <leafValues>
            -4.9466440081596375e-01 3.9499023556709290e-01</leafValues></_>
        <_>
          <internalNodes>
            0 -1 50 -2.9142502695322037e-02</internalNodes>
          <leafValues>
            -8.7595182657241821e-01 1.9991753995418549e-01</leafValues></_>
        <_>
          <internalNodes>
            0 -1 67 1.1232666111027356e-05</internalNodes>
          <leafValues>
            -7.1717900037765503e-01 2.1871630847454071e-01</leafValues></_>
        <_>
          <internalNodes>
            0 -1 70 -3.8336119614541531e-03</internalNodes>
          <leafValues>
            -9.8677480220794678e-01 1.7754940688610077e-01</leafValues></_>
        <_>
          <internalNodes>
            0 -1 15 -1.2373167555779219e-03</internalNodes>
          <leafValues>
            2.1723565459251404e-01 -7.1598523855209351e-01</leafValues></_></weakClassifiers></_>
    <!-- stage 10 -->
    <_>
      <maxWeakCount>8</maxWeakCount>
      <stageThreshold>-1.9869195222854614e+00</stageThreshold>
      <weakClassifiers>
        <_>
          <internalNodes>
            0 -1 99 1.5115484595298767e-02</internalNodes>
          <leafValues>
            -8.0838322639465332e-01 -4.4444445520639420e-02</leafValues></_>
        <_>
          <internalNodes>
            0 -1 71 -1.1909774038940668e-03</internalNodes>
          <leafValues>
            7.9690031707286835e-02 -7.0951128005981445e-01</leafValues></_>
        <_>
          <internalNodes>
            0 -1 26 -9.7201932221651077e-03</internalNodes>
          <leafValues>
            -8.7241613864898682e-01 1.5335306525230408e-01</leafValues></_>
        <_>
          <internalNodes>
            0 -1 34 -9.1410191089380533e-05</internalNodes>
          <leafValues>
            -8.0362880229949951e-01 1.8958278000354767e-01</leafValues></_>
        <_>
          <internalNodes>
            0 -1 28 1.6200961545109749e-04</internalNodes>
          <leafValues>
            2.0235411822795868e-01 -7.7852493524551392e-01</leafValues></_>
        <_>
          <internalNodes>
            0 -1 77 -3.1546363607048988e-04</internalNodes>
          <leafValues>
            1.8174946308135986e-01 -8.2084292173385620e-01</leafValues></_>
        <_>
          <internalNodes>
            0 -1 92 -1.1095259338617325e-02</internalNodes>
          <leafValues>
            4.0931761264801025e-01 -3.8585749268531799e-01</leafValues></_>
        <_>
          <internalNodes>
            0 -1 36 4.3671572348102927e-04</internalNodes>
          <leafValues>
            1.8300460278987885e-01 -8.6915659904479980e-01</leafValues></_></weakClassifiers></_>
    <!-- stage 11 -->
    <_>
      <maxWeakCount>7</maxWeakCount>
      <stageThreshold>-1.8686717748641968e+00</stageThreshold>
      <weakClassifiers>
        <_>
          <internalNodes>
            0 -1 19 1.0144947469234467e-01</internalNodes>
          <leafValues>
            -7.6782447099685669e-01 2.5000000000000000e-01</leafValues></_>
        <_>
          <internalNodes>
            0 -1 105 -1.0384541004896164e-02</internalNodes>
          <leafValues>
            2.8257307410240173e-01 -5.3408515453338623e-01</leafValues></_>
        <_>
          <internalNodes>
            0 -1 80 -2.9910679440945387e-03</internalNodes>
          <leafValues>
            -8.2297921180725098e-01 1.6619902849197388e-01</leafValues></_>
        <_>
          <internalNodes>
            0 -1 43 -3.2397834584116936e-03</internalNodes>
          <leafValues>
            -8.9399856328964233e-01 1.7857311666011810e-01</leafValues></_>
        <_>
          <internalNodes>
            0 -1 13 -1.9966298714280128e-03</internalNodes>
          <leafValues>
            2.2756348550319672e-01 -6.5379583835601807e-01</leafValues></_>
        <_>
          <internalNodes>
            0 -1 1 -1.2486251071095467e-02</internalNodes>
          <leafValues>
            -8.4948211908340454e-01 1.7463554441928864e-01</leafValues></_>
        <_>
          <internalNodes>
            0 -1 37 1.8761829705908895e-03</internalNodes>
          <leafValues>
            -3.2455506920814514e-01 5.4607301950454712e-01</leafValues></_></weakClassifiers></_>
    <!-- stage 12 -->
    <_>
      <maxWeakCount>8</maxWeakCount>
      <stageThreshold>-1.6589562892913818e+00</stageThreshold>
      <weakClassifiers>
        <_>
          <internalNodes>
            0 -1 7 6.7811543121933937e-03</internalNodes>
          <leafValues>
            -8.7696337699890137e-01 -3.5406699776649475e-01</leafValues></_>
        <_>
          <internalNodes>
            0 -1 42 1.4403744135051966e-03</internalNodes>
          <leafValues>
            -6.4226377010345459e-01 1.3678093254566193e-01</leafValues></_>
        <_>
          <internalNodes>
            0 -1 64 3.9137329440563917e-04</internalNodes>
          <leafValues>
            2.2153434157371521e-01 -6.3505244255065918e-01</leafValues></_>
        <_>
          <internalNodes>
            0 -1 3 4.5464257709681988e-05</internalNodes>
          <leafValues>
            -4.2573761940002441e-01 3.5048007965087891e-01</leafValues></_>
        <_>
          <internalNodes>
            0 -1 78 -6.2748680647928268e-05</internalNodes>
          <leafValues>
            -6.6610151529312134e-01 2.2370380163192749e-01</leafValues></_>
        <_>
          <internalNodes>
            0 -1 84 5.8193346485495567e-03</internalNodes>
          <leafValues>
            1.6989022493362427e-01 -8.7158876657485962e-01</leafValues></_>
        <_>
          <internalNodes>
            0 -1 86 5.1328204572200775e-03</internalNodes>
          <leafValues>
            -3.0063852667808533e-01 5.3757041692733765e-01</leafValues></_>
        <_>
          <internalNodes>
            0 -1 109 1.4543732686433941e-04</internalNodes>
          <leafValues>
            -4.3779015541076660e-01 4.5283114910125732e-01</leafValues></_></weakClassifiers></_>
    <!-- stage 13 -->
    <_>
      <maxWeakCount>7</maxWeakCount>
      <stageThreshold>-1.5962725877761841e+00</stageThreshold>
      <weakClassifiers>
        <_>
          <internalNodes>
            0 -1 21 1.1834136210381985e-02</internalNodes>
          <leafValues>
            -8.8751715421676636e-01 -3.7748345732688904e-01</leafValues></_>
        <_>
          <internalNodes>
            0 -1 97 9.1645903885364532e-03</internalNodes>
          <leafValues>
            -6.0655015707015991e-01 1.4484927058219910e-01</leafValues></_>
        <_>
          <internalNodes>
            0 -1 47 2.5615673512220383e-03</internalNodes>
          <leafValues>
            1.1433438211679459e-01 -9.7567075490951538e-01</leafValues></_>
        <_>
          <internalNodes>
            0 -1 17 -1.3596846256405115e-03</internalNodes>
          <leafValues>
            3.2015019655227661e-01 -5.0517845153808594e-01</leafValues></_>
        <_>
          <internalNodes>
            0 -1 27 1.3200281500758138e-05</internalNodes>
          <leafValues>
            -7.8056490421295166e-01 1.8330231308937073e-01</leafValues></_>
        <_>
          <internalNodes>
            0 -1 85 -2.5338726118206978e-03</internalNodes>
          <leafValues>
            -8.9028042554855347e-01 1.6973166167736053e-01</leafValues></_>
        <_>
          <internalNodes>
            0 -1 65 1.1785153219534550e-05</internalNodes>
          <leafValues>
            -7.5947469472885132e-01 1.7028830945491791e-01</leafValues></_></weakClassifiers></_>
    <!-- stage 14 -->
    <_>
      <maxWeakCount>8</maxWeakCount>
      <stageThreshold>-1.4812996387481689e+00</stageThreshold>
      <weakClassifiers>
        <_>
          <internalNodes>
            0 -1 107 -5.7500982657074928e-03</internalNodes>
          <leafValues>
            -2.6045015454292297e-01 -8.4615385532379150e-01</leafValues></_>
        <_>
          <internalNodes>
            0 -1 100 6.2002027407288551e-03</internalNodes>
          <leafValues>
            -5.0217592716217041e-01 3.3652144670486450e-01</leafValues></_>
        <_>
          <internalNodes>
            0 -1 20 1.7509257420897484e-02</internalNodes>
          <leafValues>
            1.3942372798919678e-01 -9.0402358770370483e-01</leafValues></_>
        <_>
          <internalNodes>
            0 -1 31 -8.0406689085066319e-04</internalNodes>
          <leafValues>
            -6.8077564239501953e-01 2.1496877074241638e-01</leafValues></_>
        <_>
          <internalNodes>
            0 -1 35 -4.6693742275238037e-02</internalNodes>
          <leafValues>
            6.4454352855682373e-01 -2.4498994648456573e-01</leafValues></_>
        <_>
          <internalNodes>
            0 -1 61 7.3227798566222191e-04</internalNodes>
          <leafValues>
            -4.6300482749938965e-01 3.1910303235054016e-01</leafValues></_>
        <_>
          <internalNodes>
            0 -1 95 -1.5137405134737492e-03</internalNodes>
          <leafValues>
            -8.4620344638824463e-01 1.6555614769458771e-01</leafValues></_>
        <_>
          <internalNodes>
            0 -1 58 -3.6391322501003742e-03</internalNodes>
          <leafValues>
            2.8472793102264404e-01 -4.9560967087745667e-01</leafValues></_></weakClassifiers></_>
    <!-- stage 15 -->
    <_>
      <maxWeakCount>8</maxWeakCount>
      <stageThreshold>-1.8033528327941895e+00</stageThreshold>
      <weakClassifiers>
        <_>
          <internalNodes>
            0 -1 73 1.5450066886842251e-02</internalNodes>
          <leafValues>
            -7.9149800539016724e-01 -1.8556700646877289e-01</leafValues></_>
        <_>
          <internalNodes>
            0 -1 16 -5.0648339092731476e-02</internalNodes>
          <leafValues>
            4.6123918890953064e-01 -4.1055160760879517e-01</leafValues></_>
        <_>
          <internalNodes>
            0 -1 12 -4.1800262406468391e-03</internalNodes>
          <leafValues>
            2.7313950657844543e-01 -5.7235527038574219e-01</leafValues></_>
        <_>
          <internalNodes>
            0 -1 76 2.2547338157892227e-03</internalNodes>
          <leafValues>
            1.7349396646022797e-01 -7.2754693031311035e-01</leafValues></_>
        <_>
          <internalNodes>
            0 -1 79 -6.6510336473584175e-03</internalNodes>
          <leafValues>
            2.3040953278541565e-01 -5.7169020175933838e-01</leafValues></_>
        <_>
          <internalNodes>
            0 -1 90 1.2179848272353411e-03</internalNodes>
          <leafValues>
            -2.9530084133148193e-01 5.4932695627212524e-01</leafValues></_>
        <_>
          <internalNodes>
            0 -1 60 -6.7380955442786217e-03</internalNodes>
          <leafValues>
            -7.7429920434951782e-01 2.6461088657379150e-01</leafValues></_>
        <_>
          <internalNodes>
            0 -1 96 -1.2592098210006952e-03</internalNodes>
          <leafValues>
            4.5548439025878906e-01 -3.5320320725440979e-01</leafValues></_></weakClassifiers></_>
    <!-- stage 16 -->
    <_>
      <maxWeakCount>6</maxWeakCount>
      <stageThreshold>-1.5166257619857788e+00</stageThreshold>
      <weakClassifiers>
        <_>
          <internalNodes>
            0 -1 102 9.1970097273588181e-03</internalNodes>
          <leafValues>
            -7.9065042734146118e-01 -2.0202019810676575e-01</leafValues></_>
        <_>
          <internalNodes>
            0 -1 9 2.5637067854404449e-02</internalNodes>
          <leafValues>
            -6.3856065273284912e-01 1.1100838333368301e-01</leafValues></_>
        <_>
          <internalNodes>
            0 -1 81 -1.6331964870914817e-03</internalNodes>
          <leafValues>
            -7.1066111326217651e-01 1.7293740808963776e-01</leafValues></_>
        <_>
          <internalNodes>
            0 -1 53 -3.0083865858614445e-03</internalNodes>
          <leafValues>
            -8.4797900915145874e-01 1.7093983292579651e-01</leafValues></_>
        <_>
          <internalNodes>
            0 -1 66 1.1785153219534550e-05</internalNodes>
          <leafValues>
            -4.6613407135009766e-01 2.5842514634132385e-01</leafValues></_>
        <_>
          <internalNodes>
            0 -1 41 3.4053223207592964e-03</internalNodes>
          <leafValues>
            1.6887159645557404e-01 -8.7545782327651978e-01</leafValues></_></weakClassifiers></_>
    <!-- stage 17 -->
    <_>
      <maxWeakCount>8</maxWeakCount>
      <stageThreshold>-1.6342322826385498e+00</stageThreshold>
      <weakClassifiers>
        <_>
          <internalNodes>
            0 -1 98 -9.5611158758401871e-04</internalNodes>
          <leafValues>
            -3.1333333253860474e-01 -8.2086169719696045e-01</leafValues></_>
        <_>
          <internalNodes>
            0 -1 46 3.4895818680524826e-04</internalNodes>
          <leafValues>
            -5.0671851634979248e-01 2.4952572584152222e-01</leafValues></_>
        <_>
          <internalNodes>
            0 -1 108 -3.3097406849265099e-03</internalNodes>
          <leafValues>
            3.9854270219802856e-01 -3.7275949120521545e-01</leafValues></_>
        <_>
          <internalNodes>
            0 -1 68 1.3373764231801033e-03</internalNodes>
          <leafValues>
            -7.1851265430450439e-01 2.0186159014701843e-01</leafValues></_>
        <_>
          <internalNodes>
            0 -1 82 -1.0247960453853011e-03</internalNodes>
          <leafValues>
            -9.0718376636505127e-01 1.8264454603195190e-01</leafValues></_>
        <_>
          <internalNodes>
            0 -1 104 -3.6312127485871315e-03</internalNodes>
          <leafValues>
            5.3994286060333252e-01 -2.8311577439308167e-01</leafValues></_>
        <_>
          <internalNodes>
            0 -1 106 3.7290577311068773e-03</internalNodes>
          <leafValues>
            -2.1919381618499756e-01 6.2684273719787598e-01</leafValues></_>
        <_>
          <internalNodes>
            0 -1 57 1.4755476731806993e-03</internalNodes>
          <leafValues>
            1.8391086161136627e-01 -7.9010063409805298e-01</leafValues></_></weakClassifiers></_></stages>
  <features>
    <_>
      <rects>
        <_>
          0 1 14 12 -1.</_>
        <_>
          0 1 7 6 2.</_>
        <_>
          7 7 7 6 2.</_></rects>
      <tilted>0</tilted></_>
    <_>
      <rects>
        <_>
          0 1 27 4 -1.</_>
        <_>
          9 1 9 4 3.</_></rects>
      <tilted>0</tilted></_>
    <_>
      <rects>
        <_>
          0 3 8 3 -1.</_>
        <_>
          0 4 8 1 3.</_></rects>
      <tilted>0</tilted></_>
    <_>
      <rects>
        <_>
          0 8 2 14 -1.</_>
        <_>
          0 8 1 7 2.</_>
        <_>
          1 15 1 7 2.</_></rects>
      <tilted>0</tilted></_>
    <_>
      <rects>
        <_>
          0 8 9 16 -1.</_>
        <_>
          3 8 3 16 3.</_></rects>
      <tilted>0</tilted></_>
    <_>
      <rects>
        <_>
          0 10 28 12 -1.</_>
        <_>
          0 10 14 6 2.</_>
        <_>
          14 16 14 6 2.</_></rects>
      <tilted>0</tilted></_>
    <_>
      <rects>
        <_>
          0 16 6 3 -1.</_>
        <_>
          3 16 3 3 2.</_></rects>
      <tilted>0</tilted></_>
    <_>
      <rects>
        <_>
          0 16 9 6 -1.</_>
        <_>
          3 16 3 6 3.</_></rects>
      <tilted>0</tilted></_>
    <_>
      <rects>
        <_>
          0 20 15 4 -1.</_>
        <_>
          5 20 5 4 3.</_></rects>
      <tilted>0</tilted></_>
    <_>
      <rects>
        <_>
          1 9 12 14 -1.</_>
        <_>
          1 9 6 7 2.</_>
        <_>
          7 16 6 7 2.</_></rects>
      <tilted>0</tilted></_>
    <_>
      <rects>
        <_>
          1 9 24 7 -1.</_>
        <_>
          9 9 8 7 3.</_></rects>
      <tilted>0</tilted></_>
    <_>
      <rects>
        <_>
          2 11 28 2 -1.</_>
        <_>
          16 11 14 2 2.</_></rects>
      <tilted>0</tilted></_>
    <_>
      <rects>
        <_>
          2 12 28 1 -1.</_>
        <_>
          16 12 14 1 2.</_></rects>
      <tilted>0</tilted></_>
    <_>
      <rects>
        <_>
          2 13 22 2 -1.</_>
        <_>
          13 13 11 2 2.</_></rects>
      <tilted>0</tilted></_>
    <_>
      <rects>
        <_>
          2 14 4 10 -1.</_>
        <_>
          2 19 4 5 2.</_></rects>
      <tilted>0</tilted></_>
    <_>
      <rects>
        <_>
          2 14 34 9 -1.</_>
        <_>
          19 14 17 9 2.</_></rects>
      <tilted>0</tilted></_>
    <_>
      <rects>
        <_>
          2 17 30 6 -1.</_>
        <_>
          2 19 30 2 3.</_></rects>
      <tilted>0</tilted></_>
    <_>
      <rects>
        <_>
          3 0 6 10 -1.</_>
        <_>
          3 0 3 5 2.</_>
        <_>
          6 5 3 5 2.</_></rects>
      <tilted>0</tilted></_>
    <_>
      <rects>
        <_>
          3 1 22 9 -1.</_>
        <_>
          3 4 22 3 3.</_></rects>
      <tilted>0</tilted></_>
    <_>
      <rects>
        <_>
          3 3 27 6 -1.</_>
        <_>
          3 5 27 2 3.</_></rects>
      <tilted>0</tilted></_>
    <_>
      <rects>
        <_>
          3 8 7 10 -1.</_>
        <_>
          3 13 7 5 2.</_></rects>
      <tilted>0</tilted></_>
    <_>
      <rects>
        <_>
          3 13 10 8 -1.</_>
        <_>
          3 13 5 4 2.</_>
        <_>
          8 17 5 4 2.</_></rects>
      <tilted>0</tilted></_>
    <_>
      <rects>
        <_>
          3 14 1 10 -1.</_>
        <_>
          3 19 1 5 2.</_></rects>
      <tilted>0</tilted></_>
    <_>
      <rects>
        <_>
          3 17 17 6 -1.</_>
        <_>
          3 20 17 3 2.</_></rects>
      <tilted>0</tilted></_>
    <_>
      <rects>
        <_>
          4 5 27 4 -1.</_>
        <_>
          4 7 27 2 2.</_></rects>
      <tilted>0</tilted></_>
    <_>
      <rects>
        <_>
          4 8 1 16 -1.</_>
        <_>
          4 16 1 8 2.</_></rects>
      <tilted>0</tilted></_>
    <_>
      <rects>
        <_>
          4 9 18 6 -1.</_>
        <_>
          4 9 9 3 2.</_>
        <_>
          13 12 9 3 2.</_></rects>
      <tilted>0</tilted></_>
    <_>
      <rects>
        <_>
          4 10 1 12 -1.</_>
        <_>
          4 14 1 4 3.</_></rects>
      <tilted>0</tilted></_>
    <_>
      <rects>
        <_>
          4 12 2 3 -1.</_>
        <_>
          4 13 2 1 3.</_></rects>
      <tilted>0</tilted></_>
    <_>
      <rects>
        <_>
          4 13 8 1 -1.</_>
        <_>
          8 13 4 1 2.</_></rects>
      <tilted>0</tilted></_>
    <_>
      <rects>
        <_>
          5 5 24 2 -1.</_>
        <_>
          13 5 8 2 3.</_></rects>
      <tilted>0</tilted></_>
    <_>
      <rects>
        <_>
          5 10 2 6 -1.</_>
        <_>
          5 13 2 3 2.</_></rects>
      <tilted>0</tilted></_>
    <_>
      <rects>
        <_>
          5 11 6 6 -1.</_>
        <_>
          5 14 6 3 2.</_></rects>
      <tilted>0</tilted></_>
    <_>
      <rects>
        <_>
          5 11 22 12 -1.</_>
        <_>
          16 11 11 12 2.</_></rects>
      <tilted>0</tilted></_>
    <_>
      <rects>
        <_>
          5 12 1 3 -1.</_>
        <_>
          5 13 1 1 3.</_></rects>
      <tilted>0</tilted></_>
    <_>
      <rects>
        <_>
          6 1 24 6 -1.</_>
        <_>
          6 3 24 2 3.</_></rects>
      <tilted>0</tilted></_>
    <_>
      <rects>
        <_>
          6 3 6 2 -1.</_>
        <_>
          8 3 2 2 3.</_></rects>
      <tilted>0</tilted></_>
    <_>
      <rects>
        <_>
          6 6 19 2 -1.</_>
        <_>
          6 7 19 1 2.</_></rects>
      <tilted>0</tilted></_>
    <_>
      <rects>
        <_>
          6 15 22 4 -1.</_>
        <_>
          6 17 22 2 2.</_></rects>
      <tilted>0</tilted></_>
    <_>
      <rects>
        <_>
          6 16 9 6 -1.</_>
        <_>
          6 18 9 2 3.</_></rects>
      <tilted>0</tilted></_>
    <_>
      <rects>
        <_>
          6 18 28 6 -1.</_>
        <_>
          6 21 28 3 2.</_></rects>
      <tilted>0</tilted></_>
    <_>
      <rects>
        <_>
          8 1 9 18 -1.</_>
        <_>
          11 1 3 18 3.</_></rects>
      <tilted>0</tilted></_>
    <_>
      <rects>
        <_>
          8 8 26 1 -1.</_>
        <_>
          21 8 13 1 2.</_></rects>
      <tilted>0</tilted></_>
    <_>
      <rects>
        <_>
          8 17 18 3 -1.</_>
        <_>
          14 17 6 3 3.</_></rects>
      <tilted>0</tilted></_>
    <_>
      <rects>
        <_>
          9 2 22 6 -1.</_>
        <_>
          9 4 22 2 3.</_></rects>
      <tilted>0</tilted></_>
    <_>
      <rects>
        <_>
          9 4 22 3 -1.</_>
        <_>
          9 5 22 1 3.</_></rects>
      <tilted>0</tilted></_>
    <_>
      <rects>
        <_>
          9 9 6 2 -1.</_>
        <_>
          9 10 6 1 2.</_></rects>
      <tilted>0</tilted></_>
    <_>
      <rects>
        <_>
          9 16 12 3 -1.</_>
        <_>
          13 16 4 3 3.</_></rects>
      <tilted>0</tilted></_>
    <_>
      <rects>
        <_>
          9 16 23 6 -1.</_>
        <_>
          9 18 23 2 3.</_></rects>
      <tilted>0</tilted></_>
    <_>
      <rects>
        <_>
          9 17 12 3 -1.</_>
        <_>
          13 17 4 3 3.</_></rects>
      <tilted>0</tilted></_>
    <_>
      <rects>
        <_>
          10 3 20 20 -1.</_>
        <_>
          10 3 10 10 2.</_>
        <_>
          20 13 10 10 2.</_></rects>
      <tilted>0</tilted></_>
    <_>
      <rects>
        <_>
          10 4 12 4 -1.</_>
        <_>
          14 4 4 4 3.</_></rects>
      <tilted>0</tilted></_>
    <_>
      <rects>
        <_>
          10 4 14 6 -1.</_>
        <_>
          10 7 14 3 2.</_></rects>
      <tilted>0</tilted></_>
    <_>
      <rects>
        <_>
          10 6 4 17 -1.</_>
        <_>
          12 6 2 17 2.</_></rects>
      <tilted>0</tilted></_>
    <_>
      <rects>
        <_>
          10 8 6 3 -1.</_>
        <_>
          13 8 3 3 2.</_></rects>
      <tilted>0</tilted></_>
    <_>
      <rects>
        <_>
          10 11 8 10 -1.</_>
        <_>
          10 11 4 5 2.</_>
        <_>
          14 16 4 5 2.</_></rects>
      <tilted>0</tilted></_>
    <_>
      <rects>
        <_>
          10 14 18 5 -1.</_>
        <_>
          19 14 9 5 2.</_></rects>
      <tilted>0</tilted></_>
    <_>
      <rects>
        <_>
          10 16 6 6 -1.</_>
        <_>
          13 16 3 6 2.</_></rects>
      <tilted>0</tilted></_>
    <_>
      <rects>
        <_>
          10 17 26 5 -1.</_>
        <_>
          23 17 13 5 2.</_></rects>
      <tilted>0</tilted></_>
    <_>
      <rects>
        <_>
          10 19 6 1 -1.</_>
        <_>
          12 19 2 1 3.</_></rects>
      <tilted>0</tilted></_>
    <_>
      <rects>
        <_>
          11 6 6 18 -1.</_>
        <_>
          11 6 3 9 2.</_>
        <_>
          14 15 3 9 2.</_></rects>
      <tilted>0</tilted></_>
    <_>
      <rects>
        <_>
          11 8 10 6 -1.</_>
        <_>
          11 8 5 3 2.</_>
        <_>
          16 11 5 3 2.</_></rects>
      <tilted>0</tilted></_>
    <_>
      <rects>
        <_>
          11 10 8 6 -1.</_>
        <_>
          15 10 4 6 2.</_></rects>
      <tilted>0</tilted></_>
    <_>
      <rects>
        <_>
          12 8 12 12 -1.</_>
        <_>
          16 8 4 12 3.</_></rects>
      <tilted>0</tilted></_>
    <_>
      <rects>
        <_>
          12 18 12 2 -1.</_>
        <_>
          16 18 4 2 3.</_></rects>
      <tilted>0</tilted></_>
    <_>
      <rects>
        <_>
          13 8 4 6 -1.</_>
        <_>
          15 8 2 6 2.</_></rects>
      <tilted>0</tilted></_>
    <_>
      <rects>
        <_>
          14 8 12 2 -1.</_>
        <_>
          20 8 6 2 2.</_></rects>
      <tilted>0</tilted></_>
    <_>
      <rects>
        <_>
          14 9 4 13 -1.</_>
        <_>
          16 9 2 13 2.</_></rects>
      <tilted>0</tilted></_>
    <_>
      <rects>
        <_>
          14 9 9 7 -1.</_>
        <_>
          17 9 3 7 3.</_></rects>
      <tilted>0</tilted></_>
    <_>
      <rects>
        <_>
          14 19 22 4 -1.</_>
        <_>
          25 19 11 4 2.</_></rects>
      <tilted>0</tilted></_>
    <_>
      <rects>
        <_>
          15 3 8 5 -1.</_>
        <_>
          19 3 4 5 2.</_></rects>
      <tilted>0</tilted></_>
    <_>
      <rects>
        <_>
          15 11 11 6 -1.</_>
        <_>
          15 13 11 2 3.</_></rects>
      <tilted>0</tilted></_>
    <_>
      <rects>
        <_>
          16 4 6 8 -1.</_>
        <_>
          19 4 3 8 2.</_></rects>
      <tilted>0</tilted></_>
    <_>
      <rects>
        <_>
          16 16 13 4 -1.</_>
        <_>
          16 18 13 2 2.</_></rects>
      <tilted>0</tilted></_>
    <_>
      <rects>
        <_>
          17 0 6 16 -1.</_>
        <_>
          17 8 6 8 2.</_></rects>
      <tilted>0</tilted></_>
    <_>
      <rects>
        <_>
          17 10 10 8 -1.</_>
        <_>
          22 10 5 8 2.</_></rects>
      <tilted>0</tilted></_>
    <_>
      <rects>
        <_>
          18 3 1 20 -1.</_>
        <_>
          18 13 1 10 2.</_></rects>
      <tilted>0</tilted></_>
    <_>
      <rects>
        <_>
          18 4 12 12 -1.</_>
        <_>
          22 4 4 12 3.</_></rects>
      <tilted>0</tilted></_>
    <_>
      <rects>
        <_>
          18 11 1 3 -1.</_>
        <_>
          18 12 1 1 3.</_></rects>
      <tilted>0</tilted></_>
    <_>
      <rects>
        <_>
          19 9 12 9 -1.</_>
        <_>
          23 9 4 9 3.</_></rects>
      <tilted>0</tilted></_>
    <_>
      <rects>
        <_>
          19 16 6 8 -1.</_>
        <_>
          22 16 3 8 2.</_></rects>
      <tilted>0</tilted></_>
    <_>
      <rects>
        <_>
          20 16 9 5 -1.</_>
        <_>
          23 16 3 5 3.</_></rects>
      <tilted>0</tilted></_>
    <_>
      <rects>
        <_>
          21 3 6 4 -1.</_>
        <_>
          23 3 2 4 3.</_></rects>
      <tilted>0</tilted></_>
    <_>
      <rects>
        <_>
          21 8 11 9 -1.</_>
        <_>
          21 11 11 3 3.</_></rects>
      <tilted>0</tilted></_>
    <_>
      <rects>
        <_>
          22 0 6 12 -1.</_>
        <_>
          25 0 3 12 2.</_></rects>
      <tilted>0</tilted></_>
    <_>
      <rects>
        <_>
          22 3 6 8 -1.</_>
        <_>
          25 3 3 8 2.</_></rects>
      <tilted>0</tilted></_>
    <_>
      <rects>
        <_>
          22 3 14 3 -1.</_>
        <_>
          22 4 14 1 3.</_></rects>
      <tilted>0</tilted></_>
    <_>
      <rects>
        <_>
          22 5 7 15 -1.</_>
        <_>
          22 10 7 5 3.</_></rects>
      <tilted>0</tilted></_>
    <_>
      <rects>
        <_>
          22 7 8 15 -1.</_>
        <_>
          26 7 4 15 2.</_></rects>
      <tilted>0</tilted></_>
    <_>
      <rects>
        <_>
          22 7 5 12 -1.</_>
        <_>
          22 11 5 4 3.</_></rects>
      <tilted>0</tilted></_>
    <_>
      <rects>
        <_>
          22 10 6 9 -1.</_>
        <_>
          24 10 2 9 3.</_></rects>
      <tilted>0</tilted></_>
    <_>
      <rects>
        <_>
          22 11 14 10 -1.</_>
        <_>
          22 11 7 5 2.</_>
        <_>
          29 16 7 5 2.</_></rects>
      <tilted>0</tilted></_>
    <_>
      <rects>
        <_>
          23 3 12 13 -1.</_>
        <_>
          27 3 4 13 3.</_></rects>
      <tilted>0</tilted></_>
    <_>
      <rects>
        <_>
          23 10 12 4 -1.</_>
        <_>
          29 10 6 4 2.</_></rects>
      <tilted>0</tilted></_>
    <_>
      <rects>
        <_>
          23 15 12 8 -1.</_>
        <_>
          23 19 12 4 2.</_></rects>
      <tilted>0</tilted></_>
    <_>
      <rects>
        <_>
          23 17 6 5 -1.</_>
        <_>
          26 17 3 5 2.</_></rects>
      <tilted>0</tilted></_>
    <_>
      <rects>
        <_>
          24 10 3 9 -1.</_>
        <_>
          25 10 1 9 3.</_></rects>
      <tilted>0</tilted></_>
    <_>
      <rects>
        <_>
          24 12 10 4 -1.</_>
        <_>
          29 12 5 4 2.</_></rects>
      <tilted>0</tilted></_>
    <_>
      <rects>
        <_>
          25 10 3 7 -1.</_>
        <_>
          26 10 1 7 3.</_></rects>
      <tilted>0</tilted></_>
    <_>
      <rects>
        <_>
          27 14 9 5 -1.</_>
        <_>
          30 14 3 5 3.</_></rects>
      <tilted>0</tilted></_>
    <_>
      <rects>
        <_>
          28 3 8 6 -1.</_>
        <_>
          28 3 4 3 2.</_>
        <_>
          32 6 4 3 2.</_></rects>
      <tilted>0</tilted></_>
    <_>
      <rects>
        <_>
          28 7 6 9 -1.</_>
        <_>
          31 7 3 9 2.</_></rects>
      <tilted>0</tilted></_>
    <_>
      <rects>
        <_>
          28 17 8 6 -1.</_>
        <_>
          28 17 4 3 2.</_>
        <_>
          32 20 4 3 2.</_></rects>
      <tilted>0</tilted></_>
    <_>
      <rects>
        <_>
          29 7 6 11 -1.</_>
        <_>
          31 7 2 11 3.</_></rects>
      <tilted>0</tilted></_>
    <_>
      <rects>
        <_>
          29 13 6 5 -1.</_>
        <_>
          31 13 2 5 3.</_></rects>
      <tilted>0</tilted></_>
    <_>
      <rects>
        <_>
          30 6 6 14 -1.</_>
        <_>
          30 6 3 7 2.</_>
        <_>
          33 13 3 7 2.</_></rects>
      <tilted>0</tilted></_>
    <_>
      <rects>
        <_>
          30 10 2 7 -1.</_>
        <_>
          31 10 1 7 2.</_></rects>
      <tilted>0</tilted></_>
    <_>
      <rects>
        <_>
          30 17 6 5 -1.</_>
        <_>
          33 17 3 5 2.</_></rects>
      <tilted>0</tilted></_>
    <_>
      <rects>
        <_>
          30 18 6 4 -1.</_>
        <_>
          33 18 3 4 2.</_></rects>
      <tilted>0</tilted></_>
    <_>
      <rects>
        <_>
          31 4 2 2 -1.</_>
        <_>
          31 5 2 1 2.</_></rects>
      <tilted>0</tilted></_>
    <_>
      <rects>
        <_>
          34 4 2 20 -1.</_>
        <_>
          34 14 2 10 2.</_></rects>
      <tilted>0</tilted></_>
    <_>
      <rects>
        <_>
          35 4 1 20 -1.</_>
        <_>
          35 14 1 10 2.</_></rects>
      <tilted>0</tilted></_></features></cascade>
</opencv_storage>
