<?xml version="1.0"?>
<opencv_storage>
<stage17>
  <maxWeakCount>8</maxWeakCount>
  <stageThreshold>-1.6342322826385498e+00</stageThreshold>
  <weakClassifiers>
    <_>
      <internalNodes>
        0 -1 333528 -9.5611158758401871e-04</internalNodes>
      <leafValues>
        -3.1333333253860474e-01 -8.2086169719696045e-01</leafValues></_>
    <_>
      <internalNodes>
        0 -1 168181 3.4895818680524826e-04</internalNodes>
      <leafValues>
        -5.0671851634979248e-01 2.4952572584152222e-01</leafValues></_>
    <_>
      <internalNodes>
        0 -1 356763 -3.3097406849265099e-03</internalNodes>
      <leafValues>
        3.9854270219802856e-01 -3.7275949120521545e-01</leafValues></_>
    <_>
      <internalNodes>
        0 -1 235027 1.3373764231801033e-03</internalNodes>
      <leafValues>
        -7.1851265430450439e-01 2.0186159014701843e-01</leafValues></_>
    <_>
      <internalNodes>
        0 -1 302340 -1.0247960453853011e-03</internalNodes>
      <leafValues>
        -9.0718376636505127e-01 1.8264454603195190e-01</leafValues></_>
    <_>
      <internalNodes>
        0 -1 352880 -3.6312127485871315e-03</internalNodes>
      <leafValues>
        5.3994286060333252e-01 -2.8311577439308167e-01</leafValues></_>
    <_>
      <internalNodes>
        0 -1 355810 3.7290577311068773e-03</internalNodes>
      <leafValues>
        -2.1919381618499756e-01 6.2684273719787598e-01</leafValues></_>
    <_>
      <internalNodes>
        0 -1 186526 1.4755476731806993e-03</internalNodes>
      <leafValues>
        1.8391086161136627e-01 -7.9010063409805298e-01</leafValues></_></weakClassifiers></stage17>
</opencv_storage>
