<?xml version="1.0"?>
<opencv_storage>
<stage10>
  <maxWeakCount>8</maxWeakCount>
  <stageThreshold>-1.9869195222854614e+00</stageThreshold>
  <weakClassifiers>
    <_>
      <internalNodes>
        0 -1 344974 1.5115484595298767e-02</internalNodes>
      <leafValues>
        -8.0838322639465332e-01 -4.4444445520639420e-02</leafValues></_>
    <_>
      <internalNodes>
        0 -1 248161 -1.1909774038940668e-03</internalNodes>
      <leafValues>
        7.9690031707286835e-02 -7.0951128005981445e-01</leafValues></_>
    <_>
      <internalNodes>
        0 -1 87394 -9.7201932221651077e-03</internalNodes>
      <leafValues>
        -8.7241613864898682e-01 1.5335306525230408e-01</leafValues></_>
    <_>
      <internalNodes>
        0 -1 106607 -9.1410191089380533e-05</internalNodes>
      <leafValues>
        -8.0362880229949951e-01 1.8958278000354767e-01</leafValues></_>
    <_>
      <internalNodes>
        0 -1 89499 1.6200961545109749e-04</internalNodes>
      <leafValues>
        2.0235411822795868e-01 -7.7852493524551392e-01</leafValues></_>
    <_>
      <internalNodes>
        0 -1 275719 -3.1546363607048988e-04</internalNodes>
      <leafValues>
        1.8174946308135986e-01 -8.2084292173385620e-01</leafValues></_>
    <_>
      <internalNodes>
        0 -1 317989 -1.1095259338617325e-02</internalNodes>
      <leafValues>
        4.0931761264801025e-01 -3.8585749268531799e-01</leafValues></_>
    <_>
      <internalNodes>
        0 -1 114883 4.3671572348102927e-04</internalNodes>
      <leafValues>
        1.8300460278987885e-01 -8.6915659904479980e-01</leafValues></_></weakClassifiers></stage10>
</opencv_storage>
