<?xml version="1.0"?>
<opencv_storage>
<stage4>
  <maxWeakCount>6</maxWeakCount>
  <stageThreshold>-1.7777974605560303e+00</stageThreshold>
  <weakClassifiers>
    <_>
      <internalNodes>
        0 -1 363884 -2.3298747837543488e-02</internalNodes>
      <leafValues>
        3.9823007583618164e-01 -8.0729651451110840e-01</leafValues></_>
    <_>
      <internalNodes>
        0 -1 13817 1.9038040190935135e-02</internalNodes>
      <leafValues>
        -7.8043913841247559e-01 2.7852851152420044e-01</leafValues></_>
    <_>
      <internalNodes>
        0 -1 11270 1.8996121361851692e-02</internalNodes>
      <leafValues>
        -6.3299500942230225e-01 4.4786536693572998e-01</leafValues></_>
    <_>
      <internalNodes>
        0 -1 322251 -4.7094829380512238e-02</internalNodes>
      <leafValues>
        6.1172449588775635e-01 -4.5294636487960815e-01</leafValues></_>
    <_>
      <internalNodes>
        0 -1 269111 -1.4842241071164608e-03</internalNodes>
      <leafValues>
        3.6808681488037109e-01 -7.9485070705413818e-01</leafValues></_>
    <_>
      <internalNodes>
        0 -1 262568 -3.4230437129735947e-02</internalNodes>
      <leafValues>
        5.4015523195266724e-01 -4.5480093359947205e-01</leafValues></_></weakClassifiers></stage4>
</opencv_storage>
