<?xml version="1.0"?>
<opencv_storage>
<stage9>
  <maxWeakCount>6</maxWeakCount>
  <stageThreshold>-1.5135593414306641e+00</stageThreshold>
  <weakClassifiers>
    <_>
      <internalNodes>
        0 -1 83862 -9.3221336603164673e-02</internalNodes>
      <leafValues>
        5.7894736528396606e-01 -7.5644445419311523e-01</leafValues></_>
    <_>
      <internalNodes>
        0 -1 125958 2.5629639625549316e-02</internalNodes>
      <leafValues>
        -4.9466440081596375e-01 3.9499023556709290e-01</leafValues></_>
    <_>
      <internalNodes>
        0 -1 177743 -2.9142502695322037e-02</internalNodes>
      <leafValues>
        -8.7595182657241821e-01 1.9991753995418549e-01</leafValues></_>
    <_>
      <internalNodes>
        0 -1 234990 1.1232666111027356e-05</internalNodes>
      <leafValues>
        -7.1717900037765503e-01 2.1871630847454071e-01</leafValues></_>
    <_>
      <internalNodes>
        0 -1 242592 -3.8336119614541531e-03</internalNodes>
      <leafValues>
        -9.8677480220794678e-01 1.7754940688610077e-01</leafValues></_>
    <_>
      <internalNodes>
        0 -1 55242 -1.2373167555779219e-03</internalNodes>
      <leafValues>
        2.1723565459251404e-01 -7.1598523855209351e-01</leafValues></_></weakClassifiers></stage9>
</opencv_storage>
