<?xml version="1.0"?>
<opencv_storage>
<stage12>
  <maxWeakCount>8</maxWeakCount>
  <stageThreshold>-1.6589562892913818e+00</stageThreshold>
  <weakClassifiers>
    <_>
      <internalNodes>
        0 -1 17893 6.7811543121933937e-03</internalNodes>
      <leafValues>
        -8.7696337699890137e-01 -3.5406699776649475e-01</leafValues></_>
    <_>
      <internalNodes>
        0 -1 152568 1.4403744135051966e-03</internalNodes>
      <leafValues>
        -6.4226377010345459e-01 1.3678093254566193e-01</leafValues></_>
    <_>
      <internalNodes>
        0 -1 214291 3.9137329440563917e-04</internalNodes>
      <leafValues>
        2.2153434157371521e-01 -6.3505244255065918e-01</leafValues></_>
    <_>
      <internalNodes>
        0 -1 11144 4.5464257709681988e-05</internalNodes>
      <leafValues>
        -4.2573761940002441e-01 3.5048007965087891e-01</leafValues></_>
    <_>
      <internalNodes>
        0 -1 279492 -6.2748680647928268e-05</internalNodes>
      <leafValues>
        -6.6610151529312134e-01 2.2370380163192749e-01</leafValues></_>
    <_>
      <internalNodes>
        0 -1 308708 5.8193346485495567e-03</internalNodes>
      <leafValues>
        1.6989022493362427e-01 -8.7158876657485962e-01</leafValues></_>
    <_>
      <internalNodes>
        0 -1 310800 5.1328204572200775e-03</internalNodes>
      <leafValues>
        -3.0063852667808533e-01 5.3757041692733765e-01</leafValues></_>
    <_>
      <internalNodes>
        0 -1 357718 1.4543732686433941e-04</internalNodes>
      <leafValues>
        -4.3779015541076660e-01 4.5283114910125732e-01</leafValues></_></weakClassifiers></stage12>
</opencv_storage>
