<?xml version="1.0"?>
<opencv_storage>
<stage13>
  <maxWeakCount>7</maxWeakCount>
  <stageThreshold>-1.5962725877761841e+00</stageThreshold>
  <weakClassifiers>
    <_>
      <internalNodes>
        0 -1 72572 1.1834136210381985e-02</internalNodes>
      <leafValues>
        -8.8751715421676636e-01 -3.7748345732688904e-01</leafValues></_>
    <_>
      <internalNodes>
        0 -1 328216 9.1645903885364532e-03</internalNodes>
      <leafValues>
        -6.0655015707015991e-01 1.4484927058219910e-01</leafValues></_>
    <_>
      <internalNodes>
        0 -1 172175 2.5615673512220383e-03</internalNodes>
      <leafValues>
        1.1433438211679459e-01 -9.7567075490951538e-01</leafValues></_>
    <_>
      <internalNodes>
        0 -1 58252 -1.3596846256405115e-03</internalNodes>
      <leafValues>
        3.2015019655227661e-01 -5.0517845153808594e-01</leafValues></_>
    <_>
      <internalNodes>
        0 -1 87892 1.3200281500758138e-05</internalNodes>
      <leafValues>
        -7.8056490421295166e-01 1.8330231308937073e-01</leafValues></_>
    <_>
      <internalNodes>
        0 -1 310450 -2.5338726118206978e-03</internalNodes>
      <leafValues>
        -8.9028042554855347e-01 1.6973166167736053e-01</leafValues></_>
    <_>
      <internalNodes>
        0 -1 222034 1.1785153219534550e-05</internalNodes>
      <leafValues>
        -7.5947469472885132e-01 1.7028830945491791e-01</leafValues></_></weakClassifiers></stage13>
</opencv_storage>
