<?xml version="1.0"?>
<opencv_storage>
<stage14>
  <maxWeakCount>8</maxWeakCount>
  <stageThreshold>-1.4812996387481689e+00</stageThreshold>
  <weakClassifiers>
    <_>
      <internalNodes>
        0 -1 356694 -5.7500982657074928e-03</internalNodes>
      <leafValues>
        -2.6045015454292297e-01 -8.4615385532379150e-01</leafValues></_>
    <_>
      <internalNodes>
        0 -1 346927 6.2002027407288551e-03</internalNodes>
      <leafValues>
        -5.0217592716217041e-01 3.3652144670486450e-01</leafValues></_>
    <_>
      <internalNodes>
        0 -1 68471 1.7509257420897484e-02</internalNodes>
      <leafValues>
        1.3942372798919678e-01 -9.0402358770370483e-01</leafValues></_>
    <_>
      <internalNodes>
        0 -1 105140 -8.0406689085066319e-04</internalNodes>
      <leafValues>
        -6.8077564239501953e-01 2.1496877074241638e-01</leafValues></_>
    <_>
      <internalNodes>
        0 -1 113429 -4.6693742275238037e-02</internalNodes>
      <leafValues>
        6.4454352855682373e-01 -2.4498994648456573e-01</leafValues></_>
    <_>
      <internalNodes>
        0 -1 195834 7.3227798566222191e-04</internalNodes>
      <leafValues>
        -4.6300482749938965e-01 3.1910303235054016e-01</leafValues></_>
    <_>
      <internalNodes>
        0 -1 322501 -1.5137405134737492e-03</internalNodes>
      <leafValues>
        -8.4620344638824463e-01 1.6555614769458771e-01</leafValues></_>
    <_>
      <internalNodes>
        0 -1 187078 -3.6391322501003742e-03</internalNodes>
      <leafValues>
        2.8472793102264404e-01 -4.9560967087745667e-01</leafValues></_></weakClassifiers></stage14>
</opencv_storage>
