<?xml version="1.0"?>
<opencv_storage>
<stage7>
  <maxWeakCount>5</maxWeakCount>
  <stageThreshold>-1.9112421274185181e+00</stageThreshold>
  <weakClassifiers>
    <_>
      <internalNodes>
        0 -1 363221 -5.2473761141300201e-02</internalNodes>
      <leafValues>
        2.7835050225257874e-01 -7.7880185842514038e-01</leafValues></_>
    <_>
      <internalNodes>
        0 -1 53018 -9.4550456851720810e-03</internalNodes>
      <leafValues>
        1.6752494871616364e-01 -7.2224819660186768e-01</leafValues></_>
    <_>
      <internalNodes>
        0 -1 86062 -1.3360171578824520e-03</internalNodes>
      <leafValues>
        2.2166268527507782e-01 -8.5932660102844238e-01</leafValues></_>
    <_>
      <internalNodes>
        0 -1 178335 -3.8566598668694496e-03</internalNodes>
      <leafValues>
        -9.3000179529190063e-01 2.5998571515083313e-01</leafValues></_>
    <_>
      <internalNodes>
        0 -1 254678 -4.0027853101491928e-03</internalNodes>
      <leafValues>
        -8.9184051752090454e-01 1.6612434387207031e-01</leafValues></_></weakClassifiers></stage7>
</opencv_storage>
