<?xml version="1.0"?>
<opencv_storage>
<stage10>
  <maxWeakCount>4</maxWeakCount>
  <stageThreshold>-1.2067430019378662e+00</stageThreshold>
  <weakClassifiers>
    <_>
      <internalNodes>
        0 -1 1488826 1269521901 1538248419 171910101 -612607497
        264172623 -1360466382 -1250691341 -543174277</internalNodes>
      <leafValues>
        -7.4453192949295044e-01 9.4392526149749756e-01</leafValues></_>
    <_>
      <internalNodes>
        0 -1 1218050 -1274638125 -1979101045 -788512495 -1450602351
        8442263 -134086589 -2111127346 -51649107</internalNodes>
      <leafValues>
        -5.4824870824813843e-01 7.6582372188568115e-01</leafValues></_>
    <_>
      <internalNodes>
        0 -1 1511623 293820664 -2129461055 -1342109675 1090584900
        -1073700277 -901545981 25233632 168777801</internalNodes>
      <leafValues>
        -5.5736380815505981e-01 6.2605398893356323e-01</leafValues></_>
    <_>
      <internalNodes>
        0 -1 1333081 -909025772 1345901563 -4293041 795426422
        -1090603618 -1086881802 1609648010 -604277338</internalNodes>
      <leafValues>
        -5.4001629352569580e-01 6.8082612752914429e-01</leafValues></_></weakClassifiers></stage10>
</opencv_storage>
