<?xml version="1.0"?>
<opencv_storage>
<stage8>
  <maxWeakCount>4</maxWeakCount>
  <stageThreshold>-1.7226150035858154e+00</stageThreshold>
  <weakClassifiers>
    <_>
      <internalNodes>
        0 -1 2083944 -670875504 -2113912830 16793745 1358958724
        134234123 688390146 402677930 -1920335615</internalNodes>
      <leafValues>
        -8.6346155405044556e-01 7.0476192235946655e-01</leafValues></_>
    <_>
      <internalNodes>
        0 -1 1189850 -2130470507 -2062909422 134316033 1140867128 638977
        201326593 18415910 -1392373751</internalNodes>
      <leafValues>
        -6.9785362482070923e-01 8.3058655261993408e-01</leafValues></_>
    <_>
      <internalNodes>
        0 -1 1519381 1065210 486608901 16777505 1208329 98507
        -1979678703 8552578 1479148840</internalNodes>
      <leafValues>
        -7.4401360750198364e-01 6.2604695558547974e-01</leafValues></_>
    <_>
      <internalNodes>
        0 -1 1641197 -972910542 -2146430656 378013992 82176 335938652
        -2046656512 268616322 64377089</internalNodes>
      <leafValues>
        -7.8734683990478516e-01 5.9634923934936523e-01</leafValues></_></weakClassifiers></stage8>
</opencv_storage>
