<?xml version="1.0"?>
<opencv_storage>
<stage4>
  <maxWeakCount>5</maxWeakCount>
  <stageThreshold>-1.9633275270462036e+00</stageThreshold>
  <weakClassifiers>
    <_>
      <internalNodes>
        0 -1 1515573 -542377729 2133568760 905936789 -712001620
        -1347494740 -152306179 -1879380493 -1610721911</internalNodes>
      <leafValues>
        -7.6812893152236938e-01 8.1203007698059082e-01</leafValues></_>
    <_>
      <internalNodes>
        0 -1 1275491 -1928799948 -49946473 -2105519849 1645306128
        1478699008 -662697975 -1844804613 -1098147503</internalNodes>
      <leafValues>
        -5.9775269031524658e-01 6.4558708667755127e-01</leafValues></_>
    <_>
      <internalNodes>
        0 -1 984783 -1688579491 1694728197 -2146795184 -661049339
        704643080 -2012577664 143344288 386075265</internalNodes>
      <leafValues>
        -6.9202578067779541e-01 5.3986096382141113e-01</leafValues></_>
    <_>
      <internalNodes>
        0 -1 235360 1460425816 -273776916 -1275134235 -1228161410
        1146903774 -866161035 1843232622 1585377241</internalNodes>
      <leafValues>
        -5.8930832147598267e-01 6.5212470293045044e-01</leafValues></_>
    <_>
      <internalNodes>
        0 -1 1567397 1544608252 1343078482 1073758225 1092386837
        -1870656894 167905304 134257826 1061540106</internalNodes>
      <leafValues>
        -5.5754488706588745e-01 6.8915891647338867e-01</leafValues></_></weakClassifiers></stage4>
</opencv_storage>
