<?xml version="1.0"?>
<opencv_storage>
<stage12>
  <maxWeakCount>5</maxWeakCount>
  <stageThreshold>-2.1850335597991943e+00</stageThreshold>
  <weakClassifiers>
    <_>
      <internalNodes>
        0 -1 2054416 -8389633 -100671514 2046410623 -15649 -73400837
        -15077385 -82840597 -16417</internalNodes>
      <leafValues>
        -9.4096672534942627e-01 -3.2894736528396606e-01</leafValues></_>
    <_>
      <internalNodes>
        0 -1 1913253 -402949 -90210341 1523808255 1944048607 -92359783
        -294667634 -1229195554 -78663713</internalNodes>
      <leafValues>
        -7.8805851936340332e-01 3.5530570894479752e-02</leafValues></_>
    <_>
      <internalNodes>
        0 -1 1438767 -105185352 -1074954776 -303038483 -813973800
        1069072381 -290062850 -1883848705 -1080271626</internalNodes>
      <leafValues>
        -6.9325339794158936e-01 3.1502845883369446e-01</leafValues></_>
    <_>
      <internalNodes>
        0 -1 1435224 -277012934 254204587 1107220982 2055098510
        -1161896086 -273686663 -17137793 1532655099</internalNodes>
      <leafValues>
        -8.4234052896499634e-01 2.9123201966285706e-01</leafValues></_>
    <_>
      <internalNodes>
        0 -1 1242966 1023115152 -1624440836 -1613015042 -1954678849
        1806564159 -433455105 -312492575 1432823153</internalNodes>
      <leafValues>
        -8.7757611274719238e-01 2.6941767334938049e-01</leafValues></_></weakClassifiers></stage12>
</opencv_storage>
