<?xml version="1.0"?>
<opencv_storage>
<stage7>
  <maxWeakCount>6</maxWeakCount>
  <stageThreshold>-2.3336739540100098e+00</stageThreshold>
  <weakClassifiers>
    <_>
      <internalNodes>
        0 -1 1375371 -4326337 -105455638 519035511 -786604353 800808527
        -1949311170 740237307 -609485317</internalNodes>
      <leafValues>
        -7.3519164323806763e-01 9.2156863212585449e-01</leafValues></_>
    <_>
      <internalNodes>
        0 -1 1680959 -1128590149 -356524823 2113893305 -6326913
        -1384456717 -1073741890 -1342490889 -1614639619</internalNodes>
      <leafValues>
        -5.5289173126220703e-01 6.8608313798904419e-01</leafValues></_>
    <_>
      <internalNodes>
        0 -1 1786134 890262493 -1867444224 -1744432747 1896677452
        335790254 -1476263936 88122045 111683849</internalNodes>
      <leafValues>
        -7.2590589523315430e-01 4.9506926536560059e-01</leafValues></_>
    <_>
      <internalNodes>
        0 -1 220267 1077911261 1130296816 1073667899 1869008885
        1417609215 668991354 1979547633 1589864269</internalNodes>
      <leafValues>
        -5.5102425813674927e-01 6.2115591764450073e-01</leafValues></_>
    <_>
      <internalNodes>
        0 -1 1960498 -885064715 2126511870 2130575247 -269844747
        -1217468935 -947962881 2146919609 455373916</internalNodes>
      <leafValues>
        -5.4756540060043335e-01 6.4314651489257812e-01</leafValues></_>
    <_>
      <internalNodes>
        0 -1 1307822 -1631887653 972959411 780070141 -518096023
        1564122718 -276856834 242743163 -1039401036</internalNodes>
      <leafValues>
        -4.6007001399993896e-01 7.7768123149871826e-01</leafValues></_></weakClassifiers></stage7>
</opencv_storage>
