<?xml version="1.0"?>
<opencv_storage>
<stage3>
  <maxWeakCount>5</maxWeakCount>
  <stageThreshold>-1.9796893596649170e+00</stageThreshold>
  <weakClassifiers>
    <_>
      <internalNodes>
        0 -1 1305349 -2043063809 -653589227 1694827605 1600196623
        -1467946977 -108060285 -1933538597 -607924057</internalNodes>
      <leafValues>
        -7.3051518201828003e-01 6.9432312250137329e-01</leafValues></_>
    <_>
      <internalNodes>
        0 -1 1806233 -88973569 -1370184 -117964805 1409285305
        -1342522662 -277924260 -2059504385 -1623654593</internalNodes>
      <leafValues>
        -4.7221645712852478e-01 6.5632539987564087e-01</leafValues></_>
    <_>
      <internalNodes>
        0 -1 2066412 -78248948 -116850656 1359626590 986121105 570589370
        33591296 570739406 608434859</internalNodes>
      <leafValues>
        -6.5617644786834717e-01 4.3629980087280273e-01</leafValues></_>
    <_>
      <internalNodes>
        0 -1 922559 -787443142 -2096693212 537068563 394334337
        1258818698 -1953947510 616793 1166250697</internalNodes>
      <leafValues>
        -5.9835404157638550e-01 4.8232772946357727e-01</leafValues></_>
    <_>
      <internalNodes>
        0 -1 502749 -721163946 -1223524350 1141407744 1497367626
        -2146369128 -2013230965 161169834 1382173039</internalNodes>
      <leafValues>
        -6.5096908807754517e-01 4.6369251608848572e-01</leafValues></_></weakClassifiers></stage3>
</opencv_storage>
