<?xml version="1.0"?>
<opencv_storage>
<stage2>
  <maxWeakCount>5</maxWeakCount>
  <stageThreshold>-2.1410820484161377e+00</stageThreshold>
  <weakClassifiers>
    <_>
      <internalNodes>
        0 -1 1265717 -4456961 -2097415 -1084497921 -44052003 -1075126529
        -7418949 -1245185 -537142305</internalNodes>
      <leafValues>
        -9.4859534502029419e-01 -2.1546961367130280e-01</leafValues></_>
    <_>
      <internalNodes>
        0 -1 2196006 -594816293 -142666272 1941658365 -639667777
        -1700992803 -36962982 1849883055 -545522177</internalNodes>
      <leafValues>
        -8.2434165477752686e-01 1.6616868972778320e-01</leafValues></_>
    <_>
      <internalNodes>
        0 -1 1762110 -1430644516 -4205860 -67081 -4237315 -71499800
        -1345340609 -119867394 -1156948780</internalNodes>
      <leafValues>
        -7.8168237209320068e-01 3.1956270337104797e-01</leafValues></_>
    <_>
      <internalNodes>
        0 -1 757974 -4690178 2147384287 -775948700 -271389798 1918523376
        -1220608529 1056592895 1073440639</internalNodes>
      <leafValues>
        -8.5471844673156738e-01 3.4992241859436035e-01</leafValues></_>
    <_>
      <internalNodes>
        0 -1 1992204 -1195650598 1029918142 2046654903 1561845625
        -1415578690 -272675022 -599992390 -6668803</internalNodes>
      <leafValues>
        -6.6951078176498413e-01 5.3425180912017822e-01</leafValues></_></weakClassifiers></stage2>
</opencv_storage>
