<?xml version="1.0"?>
<opencv_storage>
<stage6>
  <maxWeakCount>4</maxWeakCount>
  <stageThreshold>-1.4793833494186401e+00</stageThreshold>
  <weakClassifiers>
    <_>
      <internalNodes>
        0 -1 1202043 -594815556 1367810057 -1971288655 1497698391
        -989010936 -880780288 -469200179 -1870923327</internalNodes>
      <leafValues>
        -8.2452541589736938e-01 1.9419237971305847e-01</leafValues></_>
    <_>
      <internalNodes>
        0 -1 1511764 -820886344 218388480 826442961 1745473597
        -2107600296 -821443576 18874941 -1623558635</internalNodes>
      <leafValues>
        -7.2266805171966553e-01 3.8623419404029846e-01</leafValues></_>
    <_>
      <internalNodes>
        0 -1 1410896 941698549 -1681916708 1073741799 2147311093 -200725
        -1526939907 -1166486049 -818281363</internalNodes>
      <leafValues>
        -5.1481366157531738e-01 6.4541536569595337e-01</leafValues></_>
    <_>
      <internalNodes>
        0 -1 1256482 -1078985991 -412373138 1324529395 1533976120
        -822147507 1313865466 -1745013519 -664816289</internalNodes>
      <leafValues>
        -4.3609404563903809e-01 7.3611140251159668e-01</leafValues></_></weakClassifiers></stage6>
</opencv_storage>
