<?xml version="1.0"?>
<opencv_storage>
<stage0>
  <maxWeakCount>5</maxWeakCount>
  <stageThreshold>-1.3764725923538208e+00</stageThreshold>
  <weakClassifiers>
    <_>
      <internalNodes>
        0 -1 1565697 -778316549 -8175268 55694815 1606882265 -1484088577
        -1684396006 1510665691 -541338369</internalNodes>
      <leafValues>
        -7.4016469717025757e-01 3.7579616904258728e-01</leafValues></_>
    <_>
      <internalNodes>
        0 -1 412550 -192229156 -744795966 -788508303 1459704138
        162057406 1309411227 -776846370 1897361679</internalNodes>
      <leafValues>
        -7.4326783418655396e-01 2.5933620333671570e-01</leafValues></_>
    <_>
      <internalNodes>
        0 -1 1849206 -1146088996 -1169485576 -1321111081 -1120730951
        736119530 -74458751 -662521093 453650573</internalNodes>
      <leafValues>
        -7.3148691654205322e-01 3.1942650675773621e-01</leafValues></_>
    <_>
      <internalNodes>
        0 -1 1669144 -1115008520 1065832664 277042007 1028587841
        -1727356676 -1147187061 -1366640901 -1693542944</internalNodes>
      <leafValues>
        -5.4767733812332153e-01 4.5046597719192505e-01</leafValues></_>
    <_>
      <internalNodes>
        0 -1 1207526 2106847452 -1715367784 1208046523 252575792
        -1475610386 780669326 135309566 254791839</internalNodes>
      <leafValues>
        -6.1462318897247314e-01 4.2771869897842407e-01</leafValues></_></weakClassifiers></stage0>
</opencv_storage>
