<?xml version="1.0"?>
<opencv_storage>
<stage1>
  <maxWeakCount>6</maxWeakCount>
  <stageThreshold>-1.6347756385803223e+00</stageThreshold>
  <weakClassifiers>
    <_>
      <internalNodes>
        0 -1 1953981 -1213573639 -611253843 1929904095 -11044643
        -1111245377 -34012615 1292221935 -1079325187</internalNodes>
      <leafValues>
        -7.9292130470275879e-01 1.6474464209750295e-03</leafValues></_>
    <_>
      <internalNodes>
        0 -1 1486543 -1648174887 -548517560 283992279 1393513945
        -1861682534 -1351891544 738443995 -820258307</internalNodes>
      <leafValues>
        -5.3450280427932739e-01 4.0554711222648621e-01</leafValues></_>
    <_>
      <internalNodes>
        0 -1 1355535 -1900519959 -537410595 -639641385 1163729081
        -2135245150 -1649319233 -2092245009 -1073870467</internalNodes>
      <leafValues>
        -4.7080242633819580e-01 4.8173698782920837e-01</leafValues></_>
    <_>
      <internalNodes>
        0 -1 2101092 -1179116299 2096369957 109531989 -543210303
        -1114768421 -54064479 -1224067586 -1156949671</internalNodes>
      <leafValues>
        -4.6932989358901978e-01 4.7745704650878906e-01</leafValues></_>
    <_>
      <internalNodes>
        0 -1 1860785 -1615193892 2069513584 595952541 -541125427
        -1706370052 -207896401 -74811333 1000865812</internalNodes>
      <leafValues>
        -7.1765589714050293e-01 3.3262270689010620e-01</leafValues></_>
    <_>
      <internalNodes>
        0 -1 713496 -586492193 -1209763952 287610258 -1080468143
        1501839566 -1811330664 -338078727 1448695607</internalNodes>
      <leafValues>
        -6.2054061889648438e-01 4.1038680076599121e-01</leafValues></_></weakClassifiers></stage1>
</opencv_storage>
