<?xml version="1.0"?>
<opencv_storage>
<stage3>
  <maxWeakCount>5</maxWeakCount>
  <stageThreshold>-1.9563646316528320e+00</stageThreshold>
  <weakClassifiers>
    <_>
      <internalNodes>
        0 -1 1333690 -541327873 -2097153 -1617567745 -4214825 -306521349
        -3139 -68435969 -33</internalNodes>
      <leafValues>
        -9.4093322753906250e-01 -1.7355372011661530e-01</leafValues></_>
    <_>
      <internalNodes>
        0 -1 1295321 -9577985 -82887684 1591344085 2080102791 -604318005
        -22052870 -1638998017 -77611013</internalNodes>
      <leafValues>
        -7.8261327743530273e-01 1.9856961071491241e-01</leafValues></_>
    <_>
      <internalNodes>
        0 -1 2083664 -67480487 396098266 -216539753 56524260 -2130216
        -273973650 1537146858 -568385538</internalNodes>
      <leafValues>
        -7.2981059551239014e-01 3.3570638298988342e-01</leafValues></_>
    <_>
      <internalNodes>
        0 -1 816374 -1077958948 536697306 -18620451 497283068 2127200255
        -268997776 536115198 1277611391</internalNodes>
      <leafValues>
        -8.4039729833602905e-01 3.3091422915458679e-01</leafValues></_>
    <_>
      <internalNodes>
        0 -1 157403 -5642497 -18 -601948429 -1412763153 507825901
        535687101 -44335105 -411571873</internalNodes>
      <leafValues>
        -6.0130131244659424e-01 5.3062230348587036e-01</leafValues></_></weakClassifiers></stage3>
</opencv_storage>
