<?xml version="1.0"?>
<opencv_storage>
<stage11>
  <maxWeakCount>7</maxWeakCount>
  <stageThreshold>-1.3135685920715332e+00</stageThreshold>
  <weakClassifiers>
    <_>
      <internalNodes>
        0 -1 9940028 -2.6550693437457085e-02</internalNodes>
      <leafValues>
        8.0000001192092896e-01 -8.3977901935577393e-01</leafValues></_>
    <_>
      <internalNodes>
        0 -1 43683568 -1.6834197565913200e-02</internalNodes>
      <leafValues>
        1.9101929664611816e-01 -5.4493683576583862e-01</leafValues></_>
    <_>
      <internalNodes>
        0 -1 32580364 -7.5805198866873980e-04</internalNodes>
      <leafValues>
        -8.9395135641098022e-01 1.0883579403162003e-01</leafValues></_>
    <_>
      <internalNodes>
        0 -1 1574871 -1.1472748592495918e-02</internalNodes>
      <leafValues>
        5.3663629293441772e-01 -2.3677998781204224e-01</leafValues></_>
    <_>
      <internalNodes>
        0 -1 37892708 -2.6420268695801497e-03</internalNodes>
      <leafValues>
        3.8222670555114746e-01 -3.6961135268211365e-01</leafValues></_>
    <_>
      <internalNodes>
        0 -1 21797183 1.4823733363300562e-03</internalNodes>
      <leafValues>
        1.5662524104118347e-01 -8.7565410137176514e-01</leafValues></_>
    <_>
      <internalNodes>
        0 -1 30993204 7.5638346606865525e-04</internalNodes>
      <leafValues>
        -3.2387858629226685e-01 4.4599491357803345e-01</leafValues></_></weakClassifiers></stage11>
</opencv_storage>
