<?xml version="1.0"?>
<opencv_storage>
<stage17>
  <maxWeakCount>7</maxWeakCount>
  <stageThreshold>-1.5114253759384155e+00</stageThreshold>
  <weakClassifiers>
    <_>
      <internalNodes>
        0 -1 390279 -2.1794907748699188e-02</internalNodes>
      <leafValues>
        5.5555555969476700e-02 -8.5471695661544800e-01</leafValues></_>
    <_>
      <internalNodes>
        0 -1 41218359 7.1702146669849753e-05</internalNodes>
      <leafValues>
        -5.2259278297424316e-01 3.0305364727973938e-01</leafValues></_>
    <_>
      <internalNodes>
        0 -1 33515679 2.4768794901319779e-05</internalNodes>
      <leafValues>
        2.1974736452102661e-01 -4.8654177784919739e-01</leafValues></_>
    <_>
      <internalNodes>
        0 -1 27498087 -4.7236430691555142e-04</internalNodes>
      <leafValues>
        3.7843692302703857e-01 -3.3792719244956970e-01</leafValues></_>
    <_>
      <internalNodes>
        0 -1 39466540 1.8246078070660587e-06</internalNodes>
      <leafValues>
        -4.8937144875526428e-01 2.3957771062850952e-01</leafValues></_>
    <_>
      <internalNodes>
        0 -1 28362877 1.5702107702963986e-05</internalNodes>
      <leafValues>
        2.2750324010848999e-01 -6.1471593379974365e-01</leafValues></_>
    <_>
      <internalNodes>
        0 -1 7538762 -2.2682822309434414e-03</internalNodes>
      <leafValues>
        3.5920241475105286e-01 -3.4407442808151245e-01</leafValues></_></weakClassifiers></stage17>
</opencv_storage>
