<?xml version="1.0"?>
<opencv_storage>
<stage10>
  <maxWeakCount>7</maxWeakCount>
  <stageThreshold>-1.6922948360443115e+00</stageThreshold>
  <weakClassifiers>
    <_>
      <internalNodes>
        0 -1 12528801 -1.6100168228149414e-02</internalNodes>
      <leafValues>
        9.6774190664291382e-02 -8.5164320468902588e-01</leafValues></_>
    <_>
      <internalNodes>
        0 -1 25005616 -1.3520920765586197e-04</internalNodes>
      <leafValues>
        1.5740062296390533e-01 -5.3323805332183838e-01</leafValues></_>
    <_>
      <internalNodes>
        0 -1 44271210 -1.6569789295317605e-05</internalNodes>
      <leafValues>
        -7.2190082073211670e-01 1.5202799439430237e-01</leafValues></_>
    <_>
      <internalNodes>
        0 -1 13231803 -5.6405449286103249e-03</internalNodes>
      <leafValues>
        -8.4045565128326416e-01 1.3031747937202454e-01</leafValues></_>
    <_>
      <internalNodes>
        0 -1 27775026 1.7009186558425426e-04</internalNodes>
      <leafValues>
        -3.0447447299957275e-01 4.0280297398567200e-01</leafValues></_>
    <_>
      <internalNodes>
        0 -1 192946 4.7965011617634445e-05</internalNodes>
      <leafValues>
        -3.2547479867935181e-01 4.1830635070800781e-01</leafValues></_>
    <_>
      <internalNodes>
        0 -1 5426247 2.2335225366987288e-04</internalNodes>
      <leafValues>
        -4.8379710316658020e-01 3.0568715929985046e-01</leafValues></_></weakClassifiers></stage10>
</opencv_storage>
