<?xml version="1.0"?>
<opencv_storage>
<stage3>
  <maxWeakCount>7</maxWeakCount>
  <stageThreshold>-2.1889202594757080e+00</stageThreshold>
  <weakClassifiers>
    <_>
      <internalNodes>
        0 -1 4298557 5.0376079976558685e-02</internalNodes>
      <leafValues>
        -8.4958219528198242e-01 5.7894736528396606e-01</leafValues></_>
    <_>
      <internalNodes>
        0 -1 44260035 -2.7974119875580072e-03</internalNodes>
      <leafValues>
        6.3102579116821289e-01 -5.1608365774154663e-01</leafValues></_>
    <_>
      <internalNodes>
        0 -1 33843372 7.9845905303955078e-02</internalNodes>
      <leafValues>
        -4.0530207753181458e-01 5.0900566577911377e-01</leafValues></_>
    <_>
      <internalNodes>
        0 -1 32411158 5.5410095956176519e-04</internalNodes>
      <leafValues>
        -4.4569826126098633e-01 4.0837922692298889e-01</leafValues></_>
    <_>
      <internalNodes>
        0 -1 5934310 8.9410431683063507e-03</internalNodes>
      <leafValues>
        -3.3909952640533447e-01 5.0166141986846924e-01</leafValues></_>
    <_>
      <internalNodes>
        0 -1 30572242 -2.7859160676598549e-02</internalNodes>
      <leafValues>
        5.6772506237030029e-01 -3.4745213389396667e-01</leafValues></_>
    <_>
      <internalNodes>
        0 -1 33315993 3.0448209494352341e-02</internalNodes>
      <leafValues>
        -2.0001024007797241e-01 8.9204311370849609e-01</leafValues></_></weakClassifiers></stage3>
</opencv_storage>
